0.9802733627669462
0.8936839211127394
-0.6517833232200956
0.9542670399909952
-0.5928484882637735
-0.9099177989734974
0.4462270980137833
0.5102797244177604
0.9998457139816337
0.04595368621058952
-0.7753567404524329
-0.5371915562956244
-0.5312210902654071
0.7390165648340056
-0.806929183329367
0.17998591692999796
0.013432775858241363
0.07237780536662079
-0.2533912980204238
0.017178652605277973
0.5911349949367406
0.386339371325697
0.4188332774654812
-0.6682803295793724
0.8507414414325903
0.7358715973754131
0.0829682244611462
-0.35569377723902
0.7728082824709666
0.5439522746539163
0.15417866679534123
0.7448494430909312
0.3252354432709393
-0.0023359596586960407
-0.19642870576908594
-0.48671573880349545
-0.4906666172232738
0.10765617539438133
0.5742539444542667
-0.12492750395215438
-0.26501572198925816
0.5619100205259616
-0.6513685772045015
-0.4319049487193336
0.8951731622703252
0.4789146949477477
0.4433652157963913
0.5068636467153625
0.8256926883869055
0.20237020889276208
-0.8019913972414406
-0.7787114040829533
-0.4597127049820821
0.030110817730421457
-0.9099782197902027
0.5365731508594334
0.027358441999624304
0.36987666759980087
-0.5800918031044077
0.3999223790210942
0.8392376838866906
-0.6576213542671434
-0.08860771766483795
0.9607439947630967
-0.07257038389850462
0.4201580744639075
0.10938567314435765
0.06921521364648757
-0.9873444464877152
0.9306578121863143
-0.2231568546410505
0.523239392138659
-0.493332776189079
0.9430615017845697
0.49009215042934556
0.7439725888850024
-0.8218304932065509
-0.3724211788223275
0.9344220122348297
0.7415384938820393
-0.32229621368179207
0.8522859116695715
-0.7996359413041495
-0.6558532043261165
-0.09346897835735707
-0.6653196886092025
-0.13167696436689935
-0.6635512620883869
-0.055993675246027275
0.9261774156609134
0.4759839435663133
0.879606989178204
0.7719790495837565
-0.840669138462548
-0.7881423628675693
0.23371171433718768
0.5996331314452373
0.7853243883894406
-0.0557913216258396
0.21364713314414885
0.09066636770472335
-0.03644593187577065
0.4730377153630865
-0.6188368247080782
0.04236655484186543
-0.7927509492877896
-0.7836053679987499
-0.18367768880422164
-0.6776315754665158
-0.9527744646887288
0.20571707798695266
0.07638451572865664
-0.3391088645394303
-0.2325021280399353
0.3568635550254997
-0.1784126135865658
0.16862560840998256
0.013766741542239726
-0.3942170950802662
0.667779711923346
-1.1570037446946597
0.7875079811454747
-0.7771890032142489
-0.836588370111519
0.5956575114785739
0.6690447851365515
0.119323798420209
-0.9167870190470914
-0.8767727284136964
-0.7497251198801083
0.5373986239647744
-0.4604039955156529
-0.5152990857303624
0.3435412088253109
0.2281833123502318
0.09827174243360326
0.36917719475814886
-0.5780148612168883
0.34817804015476844
0.5378590424217063
0.47647049353383064
0.5306250847567587
-0.5083546292864024
0.35669653635360654
0.3957954992547767
-0.4948948183560962
-0.06487406809129831
-0.8200888112175925
-0.9875577043684959
0.7498831502723943
0.17686312999905923
-0.5862913524954763
0.4437335365126614
-0.3946631010529702
0.7700965438772969
0.44297410241045043
0.8244316141743635
0.2584309054715104
0.5582157787953018
0.507460011159942
-0.848737021784772
-0.2794860450739171
0.8076496178517891
0.2975214102991588
-0.6029724034894749
-0.5663719235170791
-0.965264523690239
-0.7052192409832702
0.04089675570382552
-0.585181394808662
-0.48051406517370104
-0.20129403540681373
-0.39828679227691094
-1.037301740518167
0.5611235648751688
0.3454684229871109
0.6601446892813386
-0.4476801578456053
0.3212606350192975
-0.7773653870801326
0.13765627843131656
-0.8573346567942086
1.21061675423577
-0.9123353650861898
-0.9800541861373423
-0.5204880724911566
0.44023375397374653
0.3471243090656451
0.28294076627009607
-0.655047256587244
-0.3011277582201322
0.3587794770744231
0.7414383435981601
-1.0041907967093682
0.42575887049904887
0.17715980195994338
0.2020353421599154
0.6025216893238923
-0.25556571092322
-0.4884840532630623
-0.9151113464250441
0.20343015668599088
0.23753201782627492
-0.5337629883212118
-0.8132200727426291
0.01702656369428773
0.41068815532590347
0.17854619217552567
1.2178770502572778
-0.4405640755178575
-0.038097606089420394
0.31569767211359645
0.006043645948195951
0.5008311160698242
-0.7386109015045601
-0.6195977531442636
0.4457492214844733
0.8138841162123486
-0.41085290149816567
-0.05286216288198593
-0.5202541298392259
-0.015265698153193827
0.6016908254780474
0.7909518965950255
-0.8208870208152125
0.4454899368342339
-0.9432444573856936
-0.8132275885959063
0.30820237746079937
-0.4680667628908512
-0.8497220986892138
0.05973908665096124
0.5906208435616638
0.9705290024423128
-0.0908283025626865
-0.7164234623625494
0.7218993342993079
0.6513323480781632
0.922402432527462
0.7086814126804919
-0.19748430775191797
-0.8680235805013288
0.2662804123681876
0.4335912742819675
0.9063458665291788
0.11656246700249284
-0.5267780132388611
-0.47355437508588194
-0.5112863091760296
0.23512775949568973
-0.6003435399524215
-0.3406975964233838
-0.5782843400533342
-0.019994536125294015
0.8488075065933534
0.34925156971448507
0.12551606161808965
-0.3015159693445407
0.5282765162038733
-0.24102914681537305
0.04841161337671961
-0.568132112375636
0.7336372008781333
-0.13814314501084857
0.5925611112598804
0.39490042125616576
-0.3674214153624758
0.0017924349799820494
-0.7894904685173451
0.05910997410098026
0.4845556277598753
-0.1729547276124608
0.570725107944237
0.353641230271589
0.18067365992628925
-0.26552522742143797
0.5368867426640194
-0.7370916465750057
0.07480200859249897
0.16465415970277053
0.5006765325115695
-0.4702863270694153
-0.4853617575672204
-0.10661978103353698
0.5610597038802079
-0.7446512551455864
0.2755818795122388
0.1489492662599523
0.1000313118736047
0.7656755245235687
0.11634605055343247
-0.8963830828321757
-0.7717295713416954
-0.4603641234883078
0.7599328990161424
-0.3862102074448774
0.7989576215772816
0.3244823697492331
-0.7988950288896726
0.8970378373839779
0.18938039623237612
0.08377187579418251
-0.4280445875390648
0.17905763551084883
-0.5027409918092121
0.35503441617418563
0.3428844705263284
-0.49623596310371837
0.18078644108327857
-0.890969648206871
0.03557989360225271
0.19790437231836067
-0.4633710454286829
0.8352603344688723
0.8968873634887973
-0.2560417713962506
0.8551094974875121
0.27249687027367653
-0.036511726317240215
-0.20947248830563736
0.7934939839250635
-0.456994563402967
-0.08554110395016463
-0.9728687227603703
0.5706113610182215
-0.0715827368736078
0.9476111698259744
0.26180120605739504
0.8847539230626822
0.45297221752138583
-0.39755354676270427
0.8280971632450129
-0.4445261221135258
-0.387761896686035
-0.1420342596847598
-0.721176700720765
0.7475855988548543
-0.45313332844398024
0.9796434363552107
-0.3543265884421185
0.16180695765294217
-0.7611512465490404
-0.5643825311954266
0.9631707192051318
0.7755782120411134
-0.5117984928145669
-0.9891437232258574
0.16022643498920847
-0.9981490776610635
0.5215497739234374
-0.014292295340007727
-0.07748818526015508
0.2601703619735396
0.2506619882632512
0.8443137035081796
0.45166606623850203
-0.09399203724695182
-0.7821917812553758
0.6636035717285002
-0.599004801501927
0.24531223836835736
-0.1945777028404072
0.07543236114081435
-0.4773326283281001
0.18543192835468306
0.5472998221022043
-0.6378051962085975
0.27766729153757863
0.538122081239013
-0.4988377681766112
0.34691266111849534
0.6149538381523705
-0.5902983555925155
-0.16020809162188326
-0.9541301924981871
0.5996381021480195
-0.246411283970555
0.18246088411727243
-0.14798955820052662
-0.6975588034470066
-0.4610407587543044
-0.8021989574497053
-0.8951662365460615
-0.23441907880622226
0.6508220577617901
-0.41078640663342303
0.9124191781753611
-0.8920670223254108
-0.9254193901368104
0.17384150315676594
-0.44245427530520753
-0.7822626834161441
-0.47482265932338596
-0.3538235756545094
-0.7856886563808215
-0.4096287620382515
0.3787876351386356
0.06431306503096179
0.21929581262447095
-0.06361690866628278
-0.22483306318959476
-0.7806425976490785
0.9926973226660845
0.3418288711056374
0.7175835361021494
-0.13620112721362942
-0.09821857131450362
0.3429077815883751
0.573282774159871
0.9719429137310798
-0.6003185688045808
0.5147382129746761
-0.20245054821883002
0.3301637247697642
0.043123884485152295
-0.754906455614923
0.7348556922669758
-0.9883862605930418
-0.13078985888210504
-0.8946226354130205
0.2093266718716583
0.7113011135157437
-0.6131236103213291
0.41279917813024225
0.6193003409000469
-0.5145334919815998
-0.336409861777968
-0.9150233215352528
0.04457344508882303
0.9328264840410084
-0.05070566397799392
-0.3529259490503996
0.07225322280558433
-0.27701890866212386
-0.7759565922326042
0.3890104773461134
-0.6979446433102657
0.08004436850677622
-0.5878827613964382
0.3718722729553867
0.825685468532025
-0.3051499293158444
0.04959204349412504
-0.6986519554951023
-0.6788713394150643
-0.3295173294418763
0.7573365191802565
0.7374923697297784
0.9430025975985934
0.048005972416565346
-0.9938513785810764
0.9107808664466108
-0.7928879892681011
-0.9810723686710319
0.11978747474274708
0.037039294487163255
0.8152735088388621
-0.7158742957593525
-0.021077099691000134
0.24593203554628318
0.5210693777298463
0.11198285826042567
-0.3591508408893601
-0.7841738430752715
0.856561874221642
-0.6562546666843929
0.7653326904163569
0.8255710921994424
-0.03807613327160265
0.08624534254604632
0.9088613064882927
0.35438910018595715
0.710389589462468
-0.18330061342663106
-0.5459873116602827
-0.45655892922970653
0.007168808706125632
-0.6678988556776926
-0.33996631570537045
0.17585456113784434
0.3840186517995858
0.6351790419634834
-0.3035574113380126
-0.23733116545837407
-0.570552587303885
0.6791386044559788
0.5633774229124564
-0.8715480588675388
-0.14780305916504982
-0.7271974599416339
-0.3842082937865165
-0.4994190947517645
0.9884532434000539
-0.06146219920823204
0.3452227198381411
-0.24498166794028697
-0.41527257918246274
-0.4922042804078042
0.6309280867356951
-0.29434555737364154
-0.9247014340902071
-0.5656616092900264
-0.21666164514424124
-0.6000123975620542
-0.5356992982878701
0.06481717848305579
0.12964574751335212
-0.5584775213897318
-0.12467504566055454
0.8242400708745374
-0.8594774603229014
-0.49389245415352956
0.1920196969131207
-0.5774953473624005
0.86514836774154
-0.051569817877493214
-0.2760072014739218
-0.19837368872779293
-0.4670522690929701
-0.2526697862438916
-0.7227449033232016
-0.3561920934286631
-0.9100579384552112
0.069356289730796
-0.8121836239285177
0.4830524910846954
-0.36838442487099715
0.21710524422542732
0.7829721051891806
-0.056893814480040966
0.4610523710741646
-0.2934971996404892
0.1619806255975309
0.6098621825568581
0.1164814827615781
-0.4670767925651143
-0.7335112307817773
-0.12116200959885445
0.865637801055122
-0.14923656614606629
-0.4887093909812549
0.4747756547841915
-0.9967938405291844
0.527000599614188
-0.22159329704073635
0.0738568567986504
-0.5806311296308286
-0.5054509578257014
-0.676163539449252
0.6261221354691695
0.11467599027308792
-0.7719204700565407
-0.6006243679220769
0.9556615538755384
0.5774799634507864
-0.5491204617128309
0.5831169123391873
-0.28665600250743345
-0.20384447288264163
-0.204835645158589
0.17521269647837023
-0.6086471395929327
-0.5752653414575428
0.8621314295753892
-0.1683787373015111
0.25225283153374645
-0.30827580943375776
-0.5291827596438886
-0.6300430537893097
-0.8371142372866887
-0.9036520770506675
0.983367348930589
0.19332406964903529
0.33695837344819646
-0.03772931331784113
-0.3459400263875103
-0.8622115104034623
-0.855057125081963
-0.2927080123671056
0.521430275590099
0.22662067770593664
-0.5344508458543886
-0.17791955623638092
-0.3608241644689652
-0.432421300550725
0.9026796423080908
-0.6462254638271401
0.42835642375654664
0.34120532383779945
0.5199068584231294
0.6975167999355019
0.44979906361106914
-0.3590682608472334
0.6825375706105962
0.735402846507171
-0.7762920076456894
-0.3704356774805561
-0.752875004317229
0.045880845409030695
-0.07359134827270863
0.6024999981762216
-0.2284540749489825
0.8027013394538892
-0.8045384104888007
0.002820839708171415
0.13474646770335696
0.5142991550689672
0.15625111328754332
0.4129123659949013
0.7866719664472486
0.29748500736567934
0.7742561088968926
0.6168232848395245
0.7613746377323871
0.515873876128629
0.42778801978293635
0.14063865100429873
-0.45453945864784995
-0.5656592042465932
-0.42634977876064495
-0.46190192940841673
0.6724425810766399
0.99621435229834
-0.22923670366786308
-0.41782139465081103
-0.21227028664799663
0.5099494881903734
-0.8259321910401589
-0.5760621685437227
0.7026265442435369
-0.07910164978678354
0.882443784002026
0.9449891686378068
-0.19219605177850102
0.5479266298186092
-0.6119656957358213
0.7165098196210329
0.4478413863737025
0.5910157685581323
0.37931806007067154
-0.7160010243689614
0.09968462814960374
0.11282437658184219
0.9688066585073685
0.94699201326655
0.6530948389908752
-0.1258089712102981
0.2513336750473858
-0.06752694045596681
-0.545374094248795
0.9228029164218858
0.24696736300258748
0.5890726450929324
0.12222010097420766
-0.8235545607297025
-0.9559935750503765
0.3671863559031702
-0.13502840463758825
-0.3794846261833876
-0.16746932132890396
0.6654854162837596
0.12579434147025068
-0.9143239397547749
0.07027558232045808
-0.8057331453155354
-0.709272531353556
-0.7982882701156024
0.4492117827807326
0.849103603463236
0.6708806071371252
-0.872186291116471
-0.0501539262672595
-0.8409518812317666
-0.9865327609457673
-0.43740543722255926
-0.2297646550515693
0.7231639545060169
-0.7411325497587726
-0.8074920683656612
0.10161593307433225
-0.29665755614069633
-0.9466798640573075
-0.929858771042839
0.8321760625323722
-0.45097537251253716
0.44298824481376986
0.929751514473868
-0.9319752241345518
-0.36082022612663467
-0.5868306168337125
-0.7610697818702239
0.26408886215751326
0.2966928279545771
-0.9638001991303689
-0.8156554952818367
-0.18880504800228737
-0.17406473644433484
0.13020357287802264
-0.03143516281662695
-0.3923967112291016
-0.37208112628351864
0.5411879825644699
-0.24319784292215108
0.36097873376985956
-0.9044171840136599
0.8885875293831598
0.10396227030066085
-0.20942601876425582
0.3305160863670269
0.16046055442984386
-0.01670169113986253
0.6418783915516091
-0.44050835175373715
0.6542716829677315
0.15920188655523226
-0.3340196200311234
-0.9025010726147951
0.018735026045923586
-0.3988887850579734
0.4961031054653853
0.35823987906758736
0.9554856023399629
0.5740797916304321
0.3318612859526211
-0.8248339641889773
-0.09139432143857462
0.3125381616019334
-0.8759756863240553
-0.19348209239201722
-0.9692971671849107
-0.19413941478989744
-0.807764732656421
-0.2594566181206974
0.006621085455463582
-0.8342090359734559
-0.7520469567718291
0.3424708706597161
-0.05095386695563916
-0.3655455018831317
-0.6022146681068563
-0.1460694237433424
0.6730772126813315
0.5072978666734724
0.6874837886709285
0.21565017884498183
0.9649843793906725
-0.5707206875994897
0.6566732479813217
-0.40562047296164716
-0.43944712447365514
-0.2777716391189296
-0.5220666898586086
-0.9395040485339851
0.9850408551428542
-0.14904601175593393
0.5483249101726582
-0.23181194097984276
-0.38752246007323143
0.9457312205271158
-0.4035026957325194
0.9075599429832183
0.4627700294014987
0.4282771858919551
-0.584599041293207
-0.17403348336315674
-0.4653989054655343
-0.20700270668962514
-0.5569859014402246
0.37293131353294817
-0.023575889177125026
0.7284768999792932
-0.8677692763063958
0.3962563400492396
0.6151447609438533
0.3762500335890514
0.5751502699683951
0.1361682158864394
0.1958658780473565
0.39335194269809004
0.40693352849200615
0.3636338996888102
0.5811378328896228
-0.19976529380352354
0.7548671803196596
-0.6533120776872283
0.850058956612675
-0.14981157236530798
-0.7889388616887252
0.9693626305787582
0.02787050065682454
0.0034009093853673176
-0.6081651635357146
0.9536151074521233
0.9935116807451708
0.007339295504375398
0.523437083551196
0.807811672548097
-1.0282891366656717
0.4681126701813325
0.056914424919259916
0.16872184118133557
0.02105200572427589
-0.9747938036535232
-0.20659647184224755
-0.41721705863348
0.3771384241742044
-0.2068048992443406
-0.6507762148365756
0.4939963043785212
0.21139852780731425
-0.519463327194853
0.22385023221015377
-0.3938672884951087
-0.7905324895023822
0.20439106156584683
-0.9724898040384787
0.18234774968472547
0.5374807292322059
0.41493208824445066
-0.505450683232097
-0.8675775823696628
-0.8284297870226401
0.6966590198332823
0.63317450563663
0.4189619562243923
0.03878980544778884
0.8937842253214107
0.874600229236847
0.3513119169472075
-0.605563947420514
-1.0023578098440162
0.3557459729887758
-0.700592602412326
-0.3691162100991315
0.06452405021545707
-0.8631780162704648
0.00488061897434243
-0.3514236805199233
-0.8546728215979446
0.317064201294363
-0.4875010936636206
0.8936493143344829
0.2532196194159247
-0.6313479630849586
0.5891835269626367
-0.0858356184540298
-0.82565539515905
-0.5738186317769013
-0.25224728859177986
0.6933100194481423
-0.4190387296003341
0.4802408346981601
0.4904469647608242
0.9541428100166794
-0.41014685289722846
-0.42260378172487306
0.11804054976877815
-0.2845727527770469
0.23770518605851904
-0.3336404480754687
-0.8131045109987993
-0.022635428975517798
-0.3640551467015875
-0.4428233261459286
-0.6277583327102877
0.07252213634775881
-0.20882291527151867
0.06913582069827695
-0.7045133831345636
0.5636033101042421
-0.026431875850350832
0.7536937886723006
-0.1221804190625306
-0.9452214031068756
-0.6671502753365158
0.801974332388399
0.13851169095559668
0.9494370109694628
-0.028960691084710482
0.1822639311074683
-0.09970615937552776
-0.5185869538872464
0.15243120049297137
-0.6192779858096117
-0.14945147722124508
0.1422958686780907
-0.8455877233650972
0.20517318044686947
0.40453892474527753
0.08277377446392468
-0.5559049269065737
-0.9943197302269706
-0.8128487502399548
-0.8745184505852179
0.9520707695269428
-0.9885205406787443
-0.7398971774866465
-0.7770661562749734
0.49193580177012985
0.04739309325740058
0.4775447121416409
0.084779649569046
-0.47862447675846037
0.33225806509903943
-0.6761694749825929
0.9994383571510197
-0.07086151420372816
-0.4370306368522483
0.2438014931847003
-0.018970204244070976
0.012106468082249817
0.5700119586932338
-0.7428736400326645
0.025093260122992678
0.09445932198239387
0.8689184595201916
0.953565046590882
0.7045487450805947
-0.16061841464443322
-0.10709013703925598
-0.5796073118133602
-0.48182262752716637
-0.03487298643753342
-0.058538988088722134
0.9273774197884395
-0.20554283740697654
0.6418842795776558
0.6640050494921488
0.7555258798902504
0.8094604597115342
0.34278450902678287
0.21421707725133957
-0.9892952034205059
0.7235462799474837
-0.8061991919633291
0.17621253247058205
0.14088554117426694
-0.983867165040294
-0.20144081676671657
0.42880177950843823
-0.7598124495589289
0.8659034699928173
0.0687700417679345
0.8662648075196311
0.8490163068818444
0.20819557268926925
-0.00019638293992712546
0.7231492762141372
0.22942892464305006
-0.4429735799935945
-0.23170734579920488
-0.7807410722707183
-0.05144270102663038
0.750404474727618
0.3831259025195171
-0.13563774312843344
0.09237992634181576
-0.6373451549525198
-0.7207025547401215
-0.45669812910055585
-0.4514185198129194
-0.34635434161034956
0.7878193619598645
-0.5433307808590466
0.6091707264968349
0.19120602759136462
-0.6675165518990982
-0.2615647648849957
-0.49652894080258003
-0.8421298918644896
-0.3159271627114845
-0.12609119209939262
0.5837281288379839
0.4785933825425236
-0.05022391886496397
-0.03095505301447093
-0.9205420397552595
0.9600447644049986
-0.32046162769439485
0.8734092982547284
-0.6002546563049117
-0.22979304211793844
0.9245999100604265
0.8119867913346603
-0.9260802871585041
-0.9017464605342911
-0.7689273902770809
0.5058040364882906
0.766759926318503
-0.8643472041312124
0.8410487992300661
0.02364845026175951
0.6496228572288401
0.34548181321715643
0.2715038202335418
0.8622290379478269
-0.17716699794851634
-0.19623781723378952
-0.3677632592807824
-0.9168929069564428
-0.057130120984585045
0.3429310276447537
-0.9641994302819716
0.1903359432684936
-0.44801155082854854
-0.09619869045390486
0.1616665445940481
0.48203879310711456
0.15221276266956052
0.7063375857553923
0.4303914409528928
0.15411984016560393
0.9196560908961278
0.8563873298848075
0.6536052801431758
-0.6652259732500716
0.11265191191468997
0.8248616042126905
0.903692658293257
0.1807345401072356
0.6354934482994752
-0.20544237120428277
-0.7361011565960369
0.7044389812364324
-0.6552815851274796
-0.5264951963619383
-0.685813920192942
-0.06860661918291025
-0.3216031744235578
0.7155721077022847
-0.08697325919321258
0.3291447735135873
0.2367948463232405
0.3799120943370717
0.35681961294381964
-0.25816379493835834
0.012103064249423607
-0.4635522053718826
0.2570670932066965
-0.9102827796641395
0.3595830397074138
-0.49429868926657344
0.3505015009805763
-0.9618003849334252
-0.5767116397701622
-0.032834620800818726
0.36468472053602136
0.6651458852682911
0.8171823111108356
0.41032178573806005
-0.45986342510050726
0.09307275571503812
0.9089702468493611
-0.9817104890126904
0.015599330688004103
0.49016128670349285
0.13353128992419475
-0.5447902918717112
0.66089346252969
-0.22532497380564587
0.2322972443330239
0.21689173658154304
-0.07694047670164018
-0.9256802803950577
0.7141511871666927
-0.2644761940299211
-0.697657759958039
0.5507154567913213
-0.3132799727100444
-0.6047658452319827
-0.3835178267112405
0.44743315735046646
-0.7678137573660936
-0.5557004941931375
-0.1800978652032096
-0.2611726669481958
-0.49195832354013624
-0.03493045999423455
-0.4069938731454946
-0.8125560917543042
0.9372542297168769
0.8575639508735542
-0.742570987279027
-0.17113420585676423
0.7466869497692071
0.33151709690780046
0.8075999552462009
-0.7365357658690332
0.2419058536748145
0.4093362800982471
-0.22312746608341516
-0.7026332238213124
-0.5532882115311842
0.07578564309406116
-0.5231272797894517
-0.17334986778177724
0.989186112491631
0.9614951346152949
0.5667322722429707
-0.06420362306173667
-0.7864800581852609
-0.9097120109637663
-0.644439362531855
0.581832770259486
-0.19793712440773556
0.5697097214553892
0.2276815160009576
-0.7029424277226322
-0.8865002360664743
0.6742715721122118
0.5793420976269535
-0.5412587105978596
-0.7331382124899902
0.5381253463488915
0.9775827546742158
0.2910726972919976
-0.32779710268097534
0.043601530009890706
0.437445147427189
0.05304730861867869
0.6195499901587869
-0.07694903830626133
0.3520529913958545
-0.6007071616300805
-0.08723498842649331
-0.2753427657875021
-0.6877819648103558
0.4974204740724661
-0.9202552051988864
-0.9912738242166684
-0.855813885639903
-0.9775904224125509
-0.4442117676491567
0.3743350324161954
0.5968534301203149
0.9175928510594059
-0.9633791302841385
0.7273360386573894
-0.9768874655573668
0.43193014381676464
0.8237346472447619
0.041571132648580165
-0.4791569835818276
0.1527604835076839
-0.9093505836943533
-0.3009177300291214
-0.6661541186103879
-0.04168352396311847
-0.8965420709853276
0.31795962186672627
0.6723509381662881
-0.9425793578280665
0.6838954360564136
-0.7906217300294635
0.5769907205369995
-0.11633986863968174
-0.9610790796627792
0.6084778881755857
0.2674200830783552
0.7427785125855126
0.4702564720656326
-0.2741527676543638
0.04228310114304778
-0.9909003302763338
-0.14305211309671562
0.4603907105151053
-0.8895400156453502
-0.7325108964484266
-0.26307990812683474
-0.06159192498670223
0.1540220697131509
0.21001027147970106
-0.8657096735498517
0.5222851435572667
-0.5585841522931658
-0.9458418295699189
-0.6148991380591488
-0.1527501963852229
-0.576942577604491
-0.42971568950779454
-0.2615123330801301
0.09537897361127709
0.8331662629552513
0.8260894473256557
0.27911286086752607
-0.555638600545141
-0.7030118035708114
0.36745852155654746
0.538945917080312
0.2881485235035172
-0.20656177090736338
-0.5400058001060479
0.23120640151050673
0.7270123539455242
0.339560522161611
-0.48389660851737165
0.30268427430488587
-0.028509964297047673
-0.42895225068780163
0.5024352795764261
-0.8984687422311268
0.08879410432810728
-0.6330085566861677
0.3467632348918383
-0.5112824638850965
-0.12367322222056708
0.3738442077559979
0.24689755344976108
0.6750345184071039
-0.06253950591163915
-0.41134935827558794
-0.6302838869187266
-0.18135450964863462
-0.4296089147300842
0.42663034913188985
-0.5639166740126221
-0.44304094777468067
0.7485483671605357
0.8243450459773646
0.9390871631057287
0.22032976146311137
0.41415113050443725
0.9143410886800817
-0.7726379869379556
-0.9063342207274996
0.25916590128311556
-0.3287263827946055
-0.9907134966784699
0.4641048088215754
-0.9594441570258746
-0.8216762728814162
-0.4800775963629141
0.9679088823783581
-0.6980023670018393
0.8692545057694357
0.3717555239502302
-0.04153607675435332
0.14937812486724278
-0.8199782948929811
0.4775203126694889
-0.010538780646910625
0.8642458836021364
-0.08849238037299141
0.8534118277231912
0.02750045336364798
0.13978065367788864
-0.1725284879553551
-0.6406730078389811
-0.32097040836042345
-0.3436435826183088
-0.8257479973166795
0.4425185447311566
-0.1358344220729808
-0.7911205843908777
-0.384691677392674
-0.8113510063193753
-0.5074880404064667
-0.9704343418390359
0.12118325122336411
0.8112975454983137
-0.9713108230429363
0.2712060606692753
-0.7981274197427359
-0.09880775435901552
0.0587375906934521
0.8589442491870186
0.10254860488490797
-0.14423748289596194
0.9206273584482808
0.7139598241397924
-0.8003456738997318
0.6048592577683034
-0.07565443517607832
0.3449643766340738
-0.9034701350444415
-0.6446239210377873
0.9417780567529348
0.7296618107146523
-0.20887728711933606
-0.3182198463858547
-0.41050143747259077
-0.06947075665131641
0.485790317297853
0.9822936593505541
0.12289973264139627
-0.07594727521516156
0.8915088988770242
0.43094856365467177
-0.2727769874927219
0.1458534487426879
-0.9572377377308608
-0.8916393771071857
0.8192270933725875
0.4476910433146725
0.9841895722039918
0.12438547515289573
0.6248684367743408
-0.2360757495960771
0.7742035705149185
0.6662692636390486
0.5093240913391025
0.9338203195233405
-0.7256346007538992
0.18090303775754696
0.28853375257250663
-0.9960202576403712
0.696642110992563
-0.534782172768154
-0.9044516379303753
0.8529010633025934
-0.6360835721162403
0.10621493898635889
-0.010474044100107204
0.5700807770073548
0.17815267549399857
-0.9632877543311678
-0.34190224214011655
-1.0271481632234238
0.9521736387655616
0.442646655173422
-0.7611924005067584
0.6028005404330288
-0.6976132418302775
0.962756886203268
-0.7563610398785644
-0.6180710444830098
-0.8834229256609808
-0.29224667043825087
-0.5112572072677197
0.8129281715097884
0.2936965556727453
0.7529071232302611
-0.8979655366041656
0.024539509707419922
-0.6062314570412186
0.8813458800115913
-0.5724457559533933
-0.031964122879805934
-0.3988514305232843
0.8611506303953991
-0.467173496947601
0.2030705714538732
0.5306749775112193
0.704709523970699
0.9697352764873125
-0.2988258207922681
-0.9861827995266342
0.7863540799006348
0.029044303997629136
-0.015525600696172093
0.229421160013657
-0.01886059040854639
0.3128087859297495
0.44950893230012584
-0.4178752276521074
-0.97217474181265
-0.10469896900772542
0.956533179392576
-0.8498493801002095
-0.4174565802121058
-1.0494544149749447
-0.4209589874033986
-0.07185686842704814
0.5099941332868011
-1.0059014403784525
0.02242620352964504
0.5179368193596834
-0.9271821080310869
0.8806491642875988
0.6714825395802987
-0.9157360339805619
0.6990604274672446
0.005085597087149845
-0.4253201666895472
-0.7507131197582936
0.10961302846339718
0.20560673294151047
0.2600047552398422
0.47863635321216946
-0.579609110218178
0.6262827874910324
-0.3032859464655999
-0.5270198145946078
0.7217669942929246
-0.6041560756080091
-0.838006828762158
-0.6568371296290046
0.24907594689574558
-0.16894969037316868
-0.21991021265565672
-0.5943890535127572
-0.061228805422267274
0.8186720020167604
-0.43516585881303166
0.3846560292258754
0.8605466198006513
-0.29547884057702367
-0.6080734268086061
-0.11662030835071795
0.24780539039454774
0.5262745668725984
0.587901412945977
0.6428456209917262
0.8721463490330548
-0.9426124676322978
0.776003412064177
0.9153554392504655
0.4752737511947027
-0.961854697492176
-0.3112768657788232
0.832925339579939
-0.7829298482934754
-0.8790401867420494
0.27256659126733096
-0.8972101003670692
-0.49976722417232633
0.5053870398693485
-0.004520446843695458
-0.4363776657447338
-0.13527338542301592
-0.023048435472513118
-0.1112827212159
0.9022163205484561
0.4857392749232492
-0.19198042119378056
0.8182216296132254
-0.8504658657241051
0.33060203865783433
-0.6373777328249797
0.8412857806650949
-0.6211667765401341
0.02655154397599202
0.21721740835120285
0.29948022280791053
-0.28787137818746245
-0.6110278151081456
-0.7612176907002122
0.9859453401155367
0.9581420234546199
0.7909812943925756
0.6102814378938037
0.7617789408219666
0.2912516450376832
0.23976184817823887
-0.5280170245556237
0.889613779971199
-0.6378670222698974
-0.07282782561623291
-0.9052992788081109
0.742586294558883
0.20871499251585646
0.10777163562056802
0.8542112723595565
-0.39555716307922517
0.7817706557210871
0.008349338478114365
0.10910522647629167
-0.15347565885358283
-0.4234900258102332
-0.2824706897439955
-0.04002104617482866
0.10013172763121814
0.563463167194256
0.5662337654321394
0.8930037825220286
0.9525761387848817
-0.444970680937853
-0.4377059838837079
-0.46816777019563954
-0.569986032326898
-0.7225873957038575
-0.47493202794965167
0.7135050413033339
-0.8071826853979553
-0.16851714313480848
-0.6836673761212573
0.3294998275826456
0.8031032441413896
0.5576078777708918
-0.2302456979972356
-0.3000356400662744
-0.08414454832544505
0.040218025120753335
-0.9906377214662834
0.13490777048913105
0.3391157519076702
-0.45424043868722497
0.40745809709377423
-0.5228640145762367
0.7863029798930858
0.8137009064942794
-0.52701513373585
0.9469684326544849
0.27633879423741575
0.6142736249513683
0.46941316395284405
0.8555460701799433
0.7782945802823653
0.07318145982282065
0.815005639054466
-0.9984655762501005
0.7686203630138364
0.1642983830887071
0.7021140696523572
-0.43967476039826064
-0.8051886656736207
-0.4809885010910037
0.2843857597164001
0.9595261803320669
0.6755341784004214
0.9534008995560723
-0.9674426750819476
0.3311871517241822
0.18992840515390164
0.8900115742479423
0.23923434986023384
-0.04508102410150001
0.13681338291303702
0.51071494651221
-0.7257155978757674
0.6680814562491089
-0.6575214464708189
-0.8433360968121499
0.6266661312309095
-0.03394003906648925
0.17831531479781423
0.3611677327027867
0.6570460379212127
-0.5229220644869512
-0.7517928588713315
-0.3129161970712154
0.6225396273723427
0.48585168887990826
-0.7559986408966242
0.45883829820922223
-0.5556217624674357
0.16477561227282742
-0.704075187456046
0.24948723498950803
0.05346574942883049
-0.8650283355570899
0.10061283746161262
-0.43511257338663634
0.3956536863632466
-0.6128970609821227
0.44178614082064455
0.7606727996431419
0.6648016347992592
-0.20971367018336656
-0.5367804027951145
-0.189774780805726
0.4996228098305104
-0.9237146244392107
-0.9033876427396206
-0.03552473197788872
0.7328460135680618
-0.9694545926444944
-0.5496866109515229
-0.9025550924654163
-0.6452526295064874
0.7002008356114747
-0.25361239782077843
0.5753907967978698
-0.6632078656798464
-0.7490974835646478
-0.007524878251560491
-0.918901602203925
0.8106323145943164
0.5241696154380073
-0.5954722315641744
0.510199497004528
0.32518229934691206
-0.9045168283517928
0.8810711869044753
-0.1320829824263709
0.6608568934387139
-1.0158525406349643
-0.8244671511218145
0.7223648973143719
0.4539772584304593
0.5149341461358797
0.12890614202533834
-0.9541934672988142
0.9929545722281744
0.5227898600821966
0.0654104440303535
0.27352011142325694
0.8369011566280798
0.8989446289491254
-0.03197198949383067
0.8110043429508134
0.5858391661341177
0.45946290978617255
0.11580878053256291
-0.6342455252300112
0.297467629771265
0.5006243515939757
0.12296630619527588
-0.7208015978806712
0.41041471264416246
0.36681060229747214
0.1315434777771931
-0.020970577090300827
0.22591093346564997
-0.48606042539845923
-0.5711229375885538
0.3030422156322809
0.20461175864771977
0.6347133668020556
-0.8143681536781142
0.2789108534343577
0.33027060451991913
0.8090972288571252
-0.432292949192096
-0.78509592735228
-0.7239854387514839
0.24031548214641577
0.8769241407452736
-0.988370573122308
-0.39588119145326467
0.401220830304704
-0.5611525838258669
-0.09880589705344169
-0.005595029916026992
0.1502135009016856
0.6608615590330598
-0.1757420971331573
0.39527105656456657
0.6800901111697188
0.8050903846303357
-0.7791816430231882
-0.8112425167518325
-0.06950536601680739
-0.878446824265819
0.10629769864395516
-0.9198701397341451
-1.0624133243195546
0.44036192934595625
-0.2265495348298728
-0.7113405308421863
-0.38394907021229313
-0.1775099311873101
-0.49297604830352043
-0.9089293739962331
-0.45952904426175506
0.3628502936575298
0.543224910415778
0.5235766297621984
-0.6484253599862847
0.20090721613766227
0.25362995366458185
-0.7849713924280833
-0.8945334728545746
0.5120476667641148
-0.909494429224787
0.019773506299921834
0.07480214715402059
-0.4302604489940269
-0.8395634495077974
-0.00541202806611178
-0.5775044319881005
-0.46209824707872355
-1.1063112950973524
-0.8046040791496323
-0.09188864138781175
0.47350106299451017
-0.6099057562430594
-0.16346848678608164
0.4092901528483712
-0.723509591527601
0.19669970366241116
0.9279915419654228
-0.43307714484712667
0.3120422152702495
0.005216005634954042
0.4802947369248803
0.09558683881602098
0.13445171343886458
0.7737325592789244
0.8901941772094702
0.7554266917243786
0.5593377507519401
0.03174438711556085
0.6923874721668455
0.10208057659589927
-0.2731940320008643
0.23127012486177603
0.9340742073544457
-0.5790381974865099
0.9103458560449483
0.6612545892429956
-0.8787440004282919
-0.37850335848129263
-0.2482997815079562
-0.7085714807413457
-0.553096126105454
-0.5918665129208549
-0.930825042082621
-0.5187265719394718
0.4209987355048516
0.4607199301860979
0.16003517775551068
0.3164635852963386
0.1874578229455151
0.05301371052447503
0.3753580814093174
-0.14676628687146578
0.0232629866792079
-0.0973075398414722
0.6967394126333659
-0.8508997564761495
0.9232325540967288
-0.3708660021740748
-0.8692493893957391
-0.2828089776893387
0.06993735723753575
1.1154267826678503
0.4852158664978829
-0.06011545218801656
0.6585347468445666
0.5461274890337025
-0.5968781321591342
-0.44803720761898924
-0.25742309509603817
0.5574033557604388
-0.6726800539619169
-0.5190911583482332
-0.7536287638117773
-1.0195743647137874
0.6265704342868943
-0.6504602060617442
-0.8806055547278883
0.6959458589971317
-0.14100624101340087
0.584454854008291
-0.6870411721430323
0.8776204000040769
0.46339563610954443
-0.5651560010205144
-0.6216314297196515
0.4408871938752527
0.07958418968940012
0.6850064233287446
0.823947120142894
-0.8191614313051898
-0.27712903094771524
-0.5041117136152684
-0.8939141896479
-0.9004750811150339
-0.4331339304410328
-0.6877847151874403
0.10248681161863181
-0.9719183459267284
-0.16831654114281047
-0.0748415650628747
0.47265175816119226
-0.5838877237738211
0.67081437468778
-0.7878264087481255
-0.26600433779337684
0.8535468724771886
0.14538036931132273
-0.6267311252015703
0.8174613151574142
-0.40563226059770024
0.9511791270077574
-0.09268455328051953
-0.6518694899488234
0.3541588331462506
0.4792083587640989
-0.9930381157702877
0.7130007125932081
0.11209237271522915
0.5899647438393484
-0.41536848003000626
0.8708425414072645
-0.4081931757265249
-0.5985019132143361
0.9404235580735809
-0.5780143635762902
-0.7363511007848988
-0.1546486397564119
-0.10406820697966188
0.4710825464843214
-0.04064043121441915
-0.12540145277871256
-0.41306793524664415
-0.9199674642548294
0.028518777808739643
0.6012700947094329
0.5634465910628176
0.7503392277702647
0.1253410516940469
-0.697151986605007
0.8127486762155833
0.7867055521240703
-0.017416532051271198
-0.10157081891301144
0.1796148633463617
0.601136016226916
0.8878401358287371
0.5633504555206812
0.07206473011630242
-0.4705863205003609
0.8507311459794631
0.3660650512451625
-0.7753543375710967
0.9252943096300768
-0.12852792482231007
-0.7458853866339635
-0.918704737852764
-0.22826872490824926
-0.39924537570579005
-0.3168197868008993
0.2521182409679154
0.7835114512689847
0.3047810411430126
-0.2537925706119042
-0.4879160977103471
0.36264341567274344
-0.5363829263671112
-0.13119117668336716
0.5152026821369777
-0.2389575386603682
-0.718189514168039
-0.6123327398208108
-0.3377141615865248
0.29738197083978585
0.5629936444866499
0.37915020247753256
-0.9858312446473438
0.7743331328683836
0.04672321147295613
0.4154651841910136
-0.05774378023959767
-0.4782836853891494
-0.724106142192918
0.8826893486103835
-0.6999167136572353
-0.7412596449496616
-0.33587607860107044
0.7696539960945827
0.97019792282399
-0.891123203987735
0.19079801945006022
-0.39788262932602775
-0.5070189038963966
-0.18140882618531035
0.994243840364444
-0.9582649685283993
0.009328712034703547
0.07670262384055919
-0.6951843774692916
-0.8592177677550019
-0.8797684818001712
-0.23448971677931496
-0.05726648527677516
-0.5096354111291699
-0.7385247823285634
-0.1302879760386912
-0.14009768716069243
-0.7407438864768993
0.10387099234943087
0.8820455905432547
0.39426951681883954
-0.2645950281374678
0.36420346153258903
-0.2612412386123632
0.44214176948673006
-0.9063307993546668
-0.033416930198297105
-0.6856552465863183
0.5037709165523478
-0.6510348549334916
-0.5741169187397204
0.6699164496235146
0.23141801880232502
-0.5772282212326773
0.936166238717976
-0.018103412173916145
-0.7302557704883148
-0.014506578487240967
0.6254588218768761
-0.19475918312615445
-0.12344470463352258
-0.9031971605798004
0.5433217327754305
0.22695655945929555
-0.9880569362775051
0.5312628775299456
-0.7037408219079901
0.9626050189890917
-0.7745975841303084
-0.7243374376941589
0.8876575159638269
0.674600077589706
0.3805312517344443
0.5857185148048412
-0.2378172558292792
0.5210162526061869
0.07252098126794518
-0.8021812336181593
-0.6113126900121939
-0.04848767852219237
-0.42261523498983256
-0.5918895651894409
-0.027702550759912785
0.49543836978672123
-0.7867752628280327
-0.6648945281244301
0.5711524875318896
-0.6361464951218034
0.18513909629591502
0.08872807945372883
-0.6703434823092159
0.22447571842440692
-0.6882446241639708
0.8556817705010717
0.06022255403675017
0.5494480779516224
-0.30129500628596645
0.7216707092035046
0.4375835989915377
0.5420911871013391
0.7172815584492304
-0.211237470342599
-0.2206515007098773
-0.30342063977587297
0.49835980988251116
0.8475648522284192
0.7746352470471182
-0.19379843016573695
-0.6217415314264139
-0.8619492810347067
0.25513333990782194
0.17733690879310093
0.5219829387393368
-0.020071059466537547
0.6970689681195501
-0.5891440612268734
-0.5846001032451895
-0.49139114461019995
0.1006743772576644
0.5652605844678508
-0.8475028104639958
0.5563392773826744
-0.14074746695845836
0.31172930116105646
0.08157390782002417
-0.8071507677555306
-0.047447866441866916
-0.6685457452664545
0.16616984474528407
0.21616700861223015
0.9061242442480181
-0.8010813484524579
-0.10552156668048976
-0.7031146264483065
0.684764334303416
-0.7178974327796848
-0.5725957058737474
0.6958861321193924
-0.5511577385073515
0.06579920712744308
-0.5298435175870098
-0.058176871904805694
-0.1515545687328325
0.4737349295325662
-0.674488345864788
-0.5202319892024899
-0.7674580660151966
0.41739336037122193
-0.3487669815170534
0.405654261001807
0.5921316407730083
-0.2716706089731147
0.8936615244084166
0.3824773783577127
0.11256778795061477
0.3727012232766327
-0.151114958614317
0.9246115581837675
-0.8273810342601274
-0.11886097415609642
0.2368189083310157
0.7107892490960369
-0.7722524054232833
0.3517780937937484
-0.9461514682013702
-0.09369591756683127
0.724722039461072
0.5135865790158662
0.8593287741457126
-0.8330488037307883
-0.5555803642250298
-0.5753746498987374
0.4533677512094962
0.5108314095489644
0.39506072402905396
-0.3540130117116721
-0.9928149898170836
-0.05533244313934731
0.29793457150420166
0.06831155107310743
-0.49775404609725094
0.8508636532304467
0.7033477351254012
0.3767111012693401
0.6661903009297839
0.3030168339912824
0.28212475747739624
-0.012523686992951396
0.05687484890301613
-0.5239003250329141
-0.0014462663695386738
-0.13830497745934636
0.2092974832077585
-0.6176040999774202
-0.20921830062604127
0.598311214060438
-0.058985170208262
-0.09921148925479745
0.8608329209992139
-0.04810686727289787
-0.06013277209152384
0.06685849155533255
0.20475202451545363
-0.033804202593258934
-0.18092394955253588
0.0021641975488289984
0.20996185824409558
-0.909571529762841
0.6956944100387363
0.18636992835007993
-0.8259069407265119
-0.20276654547794326
-0.3543629488050139
-0.7503425041107875
0.7402009383221118
0.47135839394802564
-0.7425149876449945
-0.8696278547064145
-0.8130434830679509
0.536754486893313
0.07108295466898217
0.08052170514232695
-0.637238287097397
-0.18311904456044703
-0.9269572047134388
0.18863682901317835
0.2940922935647691
-0.2692127337768674
0.2062055956579444
0.21899725471368137
-0.9464110324535923
-0.44558753522655165
0.8654779908899277
0.27463124594579447
-0.8538126726580952
-0.14496258034288317
0.42706016011183096
0.021280873335675084
0.16904315896548716
0.519284400579218
0.1094768986401113
0.7483688180094198
-0.702911602884987
-0.6803447880121687
-0.7564273435727948
-0.31869679109738785
0.9179015929997584
0.9355898097281364
0.378867471287974
-0.9624056670033981
0.5537978492543577
-0.4074900578283194
-0.094168631993808
-0.13834115775435393
-0.8443096812275529
-0.5903392392044764
-0.8426333120548005
0.12146974208811041
-0.7003937350905791
0.406395496553287
0.12319890311924346
-0.6955676410929674
0.5178282267713267
-0.39095866797311524
-0.5201749884767667
-0.09149477106106906
0.29955036795797774
0.8326904603406239
-0.18590507829544198
-0.8041765460461581
-0.8676903808170895
-0.8324985953502222
-0.6325306326934704
-0.11063539646390205
0.15803057284729233
0.6855330565769319
0.7047732396401368
0.6267819030655253
-0.14884981956412538
-0.8973369241041063
-0.49392003868755313
0.6337249479663776
0.8141444520720214
-0.3466969079901523
-0.4950950832321277
0.2569935808416972
-0.4377949753906234
-0.4879365043563708
0.42081622731858087
-0.6182482160423579
0.6515296004118211
0.13389877342895545
0.7593024170019929
-0.9439195601577941
-0.985263329039805
0.79288967271049
-0.26015426822483545
-0.15037355581443435
-0.12122235347038957
-0.04507264694565725
-0.5309482914845083
-0.2786155054810844
0.8548905501370924
0.573435242248178
0.8226379856665665
-0.6580410551980695
-0.1614707028188331
0.036495120611220955
-0.48686792050054506
-0.31724663910762674
-0.5996777866241547
-0.21199039194032765
-0.4641301026811844
0.05678473720576793
-0.32026065893353994
0.14743235315108083
0.2825837135225584
0.5496506638681995
-0.414327257989932
0.5983387826904987
-0.5767634011902942
0.07277419554958109
-0.1330356630869134
0.9178395617219177
-0.8932999789925518
-0.9140036018113282
0.9659178424365371
0.5604701399349288
0.9035238312409306
0.8028285919342246
-0.6455299085958248
0.40379225610997893
-0.9194660221652367
-0.9246349355074035
0.3287836775576847
-0.9296415743113493
-0.872490280413365
0.12922378902095621
-0.739004842327424
-0.8486646285610158
-0.13168610108056322
-0.19775935552632418
0.3223825118558379
-0.12327445503025447
0.8428981216740261
0.5669160685667987
-0.8475838789997983
-0.41299467713002835
-0.8443407265014504
0.3299170252509942
0.7985342126447645
-0.667070903813388
-0.3400915757200764
0.4088749114639747
-0.7280749613489821
0.14456725570279794
0.396607915452853
0.7199242510116888
-0.39423074414381487
-0.5426529616815321
-0.7060224956618457
0.7171065022223944
-0.054550483399306016
0.5722659434179128
0.7491181761203899
0.8624750381206016
-0.7234120817213486
0.7656251834041397
0.4553655567468607
0.08712970640738057
0.3556609254527523
-0.6414609123412223
-0.6570724427274576
-0.8590319201533284
0.6969363839212782
-0.4089527784940626
0.13940423072989103
0.46434824403626695
-0.34202578102748354
-0.2308100309270959
-0.4610540791537995
0.5763082126852053
-0.7749111798324485
-0.6635444022305539
0.42554906837615103
0.9099007346532503
0.014547279307375923
0.6565470273500102
-0.5307369002603826
0.5251823709558162
-0.42020572098207687
-0.9005196439995246
0.19754600485167798
-0.4835212247487024
-0.6116700638755507
-0.8194020537168064
0.2736879941055198
0.15208964615087153
-0.6725866001869543
-0.008254729306696991
-0.5894720490250309
-0.8615657153064712
0.531367794661236
-0.4341944322814469
1.1171552987616842
0.15340787702001366
-0.6841348206004499
-0.9238122694280143
0.7286050124581293
0.01894134134161473
0.7767530211304723
0.3452760321806664
0.38156648559484074
0.033846472037530134
-0.024981443749255077
-0.803915123360707
-0.5000470478350527
0.6337099291209127
0.7420156996012816
-0.9854490522927931
-0.3579112050414183
-0.014604861861731837
-0.5922359382580937
0.4053392248761087
0.47698470695149714
-0.45625510261625796
0.15720283738294588
0.30008104481694264
0.9597370260614029
-0.9129805502977791
0.8192537252140905
-0.27190723330608557
0.21472969667921943
-0.4879346162453555
-0.3239930550451463
0.04160328410476311
0.17453315165979658
-0.266343875221147
1.2186876804935307
-0.4741601316106263
-0.8198051945293615
0.4313438710632702
-0.7907164420121745
0.5849414868039631
-0.6794142150713558
-0.10438130472042166
-0.04798177857874182
0.6252241468841334
0.5704501182843883
0.28428210052021885
0.21545812185838079
0.3331885536946637
-0.26409319001011494
-0.13734861796301273
-1.2176072244303993
0.4721356467385362
-0.9528154586744441
-0.005146040310852429
-0.9728126541942913
0.11955183516124007
-0.08258502058419771
0.4286543913063603
-0.027950783415890492
-0.13648988571990767
-0.18022706752751994
-0.19683393116698095
-0.7579049899653109
-0.9420461978571254
-0.12001025362529656
0.7762221877822781
0.5495595768622483
0.1256073450617756
-0.9210155499700715
-0.019141847796402735
0.2014211968338451
0.8223355655049119
0.5330834471457185
0.12520793905061176
0.9425456618357203
-0.7280602665543228
0.5951099554927918
0.37567989966203985
0.3332722683932452
-0.5754667046510534
0.40500780585869456
-0.12039968742724413
0.6908155235627542
-0.07155902256338878
0.019155881073417022
-0.6839177524658839
1.0871888112830077
-0.32791998037043185
0.6795303709356857
0.2952590307342935
0.43481864320895847
-0.22775161697648033
0.6919444279948292
0.3335375904310203
0.8880840981698821
-0.48567722480921743
0.3166846948508646
0.3113344058307817
-0.4935724594517366
0.7294153407544246
0.08730932786782389
-0.8848432142575674
-0.9180268502579538
-0.349571025985707
-0.4763571193044675
-0.5652207860738621
-0.3453599891525721
0.8583417855933249
-0.7037422741547102
-0.5483471691329067
0.09131421349363046
-0.7813494009430281
0.7798578030994491
-1.0241108679572408
-0.2265738782358089
-1.0067536525892875
0.7121480778653283
-0.8549594131658106
0.1377067443286399
0.23579955839734237
0.29375123689385585
-0.807664268936563
0.032594724316887216
0.26917956212586375
0.15066822444870206
-0.7970026096119925
0.43586863607669163
-0.07699262465710054
-0.3147280880510277
-0.024878872494151445
-0.8833211472675953
-0.39471504066544155
-0.8373956687716723
-0.31421572900974437
-0.3698060048583916
0.1034007950238077
0.35533089015468106
0.35630181149737516
-0.09764475173848834
-0.6179935882121738
-0.7744700476886343
0.44006681637824907
-0.3714687824251831
-0.49002856087880775
-0.5648602492855471
-0.47668639656468514
-1.1752390352165651
0.7167356652977424
0.7782211601291394
-0.4252078474541225
-0.58898909380064
0.5449065984883037
-0.9564718835591984
0.6000582915476923
0.6616107884214765
0.8875155108613045
-0.24321525366013264
-0.49639844046811843
0.13906557834957864
0.6559027976859165
-0.9398532225963028
0.7332489513622756
-1.1277927653636073
0.15688026639101665
1.1650083530297817
0.9277790663204543
-0.18864953223949021
-0.7036490296781435
-0.9840456566329118
0.8834083537921267
-0.563674872171945
0.8166723382922466
-0.6210968737544856
-0.8260288531678541
-0.4214880726310867
0.28981416266917415
-0.3839328562363752
-0.7848360216097443
-0.602907523209024
-0.20824828560303935
-1.5664130901965527
0.34944734514677955
0.9595074046397815
-0.43290699706960534
0.6612280285530939
0.5143710770499851
-0.26457648086858193
0.35645175292785264
-0.2595675809000972
0.09342795885543491
-0.2116106488792856
0.09862603660023343
-0.7712567053898062
0.08363322768264875
0.5106516746075325
0.11000867528925509
-0.13528458418838296
0.6778588211722855
0.6621630654262746
-0.23233800436354324
0.12368786669169127
-0.37205926645720194
-0.7482928302101954
-0.5146377049867509
0.24320848840357362
0.6293508898167924
-1.9251776943188759
-0.3371900552326161
-0.4056890702721658
-0.3068465444996333
-0.9247091097574415
0.9191050714655743
-0.9281215004067048
-0.7164110186942706
-0.43028587966541654
0.5395744598082365
0.9833719879365267
-0.9018679434022635
0.9974309399300093
0.3703595174716134
-0.9741912786786117
-0.6825820524688526
-0.6897937235458333
-0.8996901281883402
-0.5046463324170875
-0.9142473040202591
-0.5775179832110735
-0.8822675273529352
-0.26128704186837837
-0.022591737048779134
0.43576276824557636
0.39977174878639754
-1.5238766866319644
-0.8280243501190568
0.9548285631375082
0.07804320236356523
-0.0414414033896226
-0.619162421776918
-0.857122887149344
-0.8515367380589245
-0.4504552356711045
-0.24508285102028915
1.0236093822161705
-0.6923443229414
-0.4311728087400425
-0.21542265562212506
0.36681700660757877
-0.7503260360103714
0.871096059712841
-0.9090423967496991
-0.9805553846688548
0.017490022949609798
-0.6087348955327454
0.15865827380126843
-0.865566378119608
-1.0058959947142725
0.5402266611303331
0.05388277931405203
-0.9576865709477359
-0.17188818164452976
0.8799681842753178
-0.21719651210944763
-0.7569462263706904
0.9190423687644602
0.9448633174562743
0.6531811618406664
-0.27915083942526836
-0.9508175417892994
-0.49912488762836177
-0.09867205460607262
-0.309633422212507
0.21166323123981332
0.3129110286538189
-0.8606537287370652
-0.6150734985881704
-0.6967320006394598
-0.650610189317053
-0.03151668772036873
0.5828732097172475
-0.24201032818239995
0.23257521606093462
0.8547760460059266
-0.6483320121221762
-0.3818833270782893
-1.2295497241519378
-0.31957979574932105
-0.1653702970808072
-0.47114893047704337
0.9797141981147479
-0.64133094967175
0.3529895714660366
0.29844144952125046
-0.4425780732160667
-0.34299175372427015
0.5032570320380529
0.40680774244749235
0.5944835995817427
-0.5247896734370981
-0.9239980637056364
-0.3261430012019832
0.5031239834364073
-0.4219772519019395
-0.3675314431948985
-0.4982606350141036
-0.34874614791797687
0.09470856529785764
-0.03773008795454973
-0.6667189959136246
-0.6267729539603083
1.3976148544650246
-0.3899245296582844
0.4436905212262421
-0.24872425654546915
0.13291735628236545
0.415372687216251
0.6038048098313499
-0.9771352455687624
0.1691007322368401
0.8412862318919532
-0.9136417379266655
0.19066566381814254
0.2755419587750983
0.8435688481080487
-0.9670602899748081
0.14455041395175924
0.3141109973503596
0.702652717364549
0.7691816369874301
0.7472834124662148
0.38581955639339155
-0.8377486702821866
0.5953063887529454
0.12967014317508524
-0.5330295107310538
0.6755313699751052
0.890418215708487
-1.4295192410027828
-0.3429504170584693
-0.4656316527766854
0.48711014870252534
0.2514764532609789
-0.5775892385395079
0.3668385141800913
-0.2837782717571903
0.017303060011092733
0.7404305362841037
0.9290767982593391
0.14279333882035322
0.33879232661928604
0.5707366640840382
0.08520225859038578
0.2637782659909636
0.08232212987607898
0.4263085788481989
-0.3252155359461643
0.8676121437033228
0.7487916465548645
-0.18623546823615686
0.43973790056680345
0.4688763670971851
0.3876165408352832
0.591955283626573
-1.0375670026357366
0.032436041292561925
-0.6974308799834608
-0.4497983859588897
-0.3001568259494646
0.524729324177842
0.5438988211320784
-0.8519596754231544
1.1800132788046582
0.0691485648454501
-0.3272083921598813
0.8508819249642785
-0.5986883687881507
-0.6141019147107253
0.24739542456357774
-0.014889670428638608
0.40955883472932403
0.3728570841498294
0.7018142905823569
-0.6671687137007055
0.20597671052922542
0.48067781790541836
0.19128875014331448
-0.8855115047607565
-0.9959951981673426
0.621063540959652
-1.6835727833019447
0.8002652820218016
-0.16242519552339096
-0.60384921584734
-0.16085384705935782
0.5064838448320028
0.23139663059736756
-0.07226949428461811
-0.09746995173717289
-0.1939186331590896
-0.18344859558543297
-0.07454057032199653
-0.19196248374355748
0.8910146181427715
0.37348457526452095
0.36624428644436063
-1.0284924469986791
0.1032091183469982
0.15997796032709827
-0.28117262789832564
-0.17229458193447905
-0.6375120590754658
0.09534740713364027
0.8688894785950643
-0.6012435511129618
-0.2948989123439422
0.18723694552142733
0.7868963961234896
0.8636170316842828
0.3371405553511009
-0.8559182088914968
-0.08961615311939035
-0.6673895451851435
-1.0295637419170758
0.5726565174859021
-0.783681068354695
0.837022231162969
-0.004306637916727789
0.11687589769132711
0.5168155058698919
-0.09452182367801841
0.0928610715492486
0.35818006451123163
0.28338050564525613
-0.08765782029605461
0.6387510248702495
-0.5052198968309956
0.533457279874134
-0.6386769945269993
0.0471063871135848
0.358716067650777
-0.8447318863474569
-1.4272355648590735
-0.24201817897624917
-0.4322404314653835
0.018823717376501004
0.027178915367822083
1.154818783323627
0.6455706947078229
0.5051623660030347
0.0024805633982930603
0.21931545134737415
0.337683248634002
-0.40332710277258554
-0.3413575732483322
-0.13697741517931494
-0.370841797960734
0.6409302689847519
0.37642822134316095
-0.8735693853418031
-0.27537556307621913
0.9710206805689782
-0.4370563854776717
-0.4671836818649781
-0.7199650056150753
-0.7232786882349859
0.8803142159894759
0.9691072144895145
-1.1608277097067419
-0.059126236460135824
0.03696358190539267
-0.5141513911706577
-0.24971263165808108
-0.5369785106023935
-0.2089781318655459
-0.7339459957295332
0.2722262042845422
-0.8090981091797751
-0.19251853889921872
0.08296105865767997
0.38483530203476396
-0.1715571675628531
0.4784119061363958
-0.17479365582643455
0.7193155444928414
-0.8975452989395781
0.6366141977183233
0.8124730623757344
-0.0427888156964466
-0.19382537152684423
-0.23285350520995743
-0.5008543030794848
0.45886346262792466
0.61290998564229
0.3084700986114311
-0.06212894248146531
-0.7187152524344533
-0.9359663971242734
0.8091359001553705
0.6764606775187036
0.8269452561244613
0.11000743655962156
-0.7788957190506229
-0.936293634305242
0.9950059719974931
0.2450643569516732
-0.1034389594045123
0.7248206480453581
0.736928379199813
0.5237464473978934
-0.030478008570306307
-0.2679944188874372
-0.9255964508448637
0.10436578609081774
-0.7826402407566792
0.4460742115805657
0.6755073207997679
-0.9811862730298333
-0.04003101698187412
0.9748937087546796
0.09139844684262018
-0.5567487546268128
-0.36794568799998706
-0.6350864626695198
0.2857103318193707
1.0363250766083172
0.7070898801175398
-0.553464372655078
0.4929627371080567
0.791493867296579
0.1661737798121848
-0.48672690481638176
0.37774317689952214
0.10836350597964295
-0.30214870222544826
-0.3497776214312773
-0.47946051333888773
-0.49384382338806326
0.35940670647635653
-0.45906604898518005
-0.45965449776844375
-0.3014158642207735
0.7294390265692756
-0.21246482912419762
-0.7416141868064474
-0.3666608332709606
0.9665313643784075
-0.863950793764654
0.9020395042252756
0.18792306013973026
-0.7201631399140167
-0.009558389506303779
-0.2984021725975739
-0.6956112136084421
0.017694654353520863
-0.4594750084052683
-0.9818434565151269
0.5461321926494735
-0.6993020106282102
0.09983899699719433
-0.14844807869384402
-0.39136597696282366
-1.0044156030601876
-0.36459128040702243
0.8027922734438693
-0.31350607503526345
0.9582582524096672
-0.6028638889483314
0.727548466703425
0.895528042735591
0.5076895828073171
0.06845061126890455
-0.33100076008600565
-0.6829383041550757
0.6950759907702174
0.5808133829854004
-0.17126763558590385
-0.11486111522542038
-0.4383462552851039
-0.7475244340515119
-0.28140217922693495
0.17898292306923946
-0.772968438738762
0.8866393843475515
0.08116194612903731
-0.18667772221099493
-0.8546356075282282
-0.6768049215947058
-0.4991525746499131
0.5170618356105497
0.5605750291330311
-0.39922904166200107
-0.376378750184018
0.18852427377130357
0.8381711019223218
-0.27314901676929576
-0.44932489516118046
-0.4854596767574892
-0.4177702642171557
-0.6614448927286912
-0.20364814156311734
0.27262035388885913
-0.6460825176994965
-0.19571816111758822
0.98217829250768
-0.026473263297063614
-0.15373080519357848
-0.10768533872246441
0.6550970362902264
0.9242422660489229
-0.777992581649041
-0.33829942657519463
0.780060980323204
0.42208856403273165
0.6496614145868511
-0.9998890475916369
-0.9221701603308144
-0.9204416522152528
-0.9767031291006159
0.49814050984836084
-0.1604229417480536
-0.47765281086468825
0.5779271238678845
-0.6616348977875759
0.7126224604160227
-0.2102369613455948
-0.21409507136469985
0.2560907850304117
0.49929735323946367
0.8679851932948449
-0.7593829948019047
0.2659639398761797
-0.1915969183408259
0.37663072251023966
-0.45362449119869835
0.23995520917203242
-0.5904481387409543
0.5318079792292498
0.48073049074297264
0.5949229199150753
-0.2929689023456247
0.6553214212816605
0.5989234177260655
0.8675756780167324
-0.39247979436840874
-0.024688624318312907
0.4828096901612046
0.5522313622858239
-0.4363170013506978
0.6968937828929708
-0.3145914574705617
0.06083777213487011
-0.47998609141431176
-0.7463085126390024
0.9498237702672606
0.7935618313129803
0.4876910719016982
0.19810897484565043
0.6461671993710657
0.5871591972516012
-0.9740762785823844
-0.2804918399131043
-0.45584550849237365
0.47677612892167415
-0.8246323640391198
0.4588866197086402
0.10243829464057369
-0.30824171706300363
-0.3565349589804614
-0.12299419367226704
-0.45905940609619156
0.7123507733592437
0.7618844577304744
-0.11801895054341918
-0.18555790851312112
-0.11123924367929523
0.3029949225798758
-0.20573042778378206
-0.4938787974733573
0.1807328008893956
0.16086965570836342
-0.8706526206808375
-0.2962342273628446
-0.3658543382365671
0.5994411286650106
0.6929697588003719
0.7181027685806771
-0.033295372800742316
-0.017620510653614994
0.0414952274027672
-0.752286868533921
0.2342790182633681
0.6902348691491796
0.17128206640026317
-0.9023225125722366
-0.02231069853996391
0.7045517291520814
-0.590594742775928
-0.3410057009756886
0.9886770803648225
0.6308133955163425
0.43875569187737734
0.6483875572732208
-0.6586631236790266
-0.2636884675945629
0.9176658965936204
0.5570248484606425
-0.7225998592065193
0.8810803120559104
-0.6243256534127809
-0.9265409351690672
-0.5859691007436582
0.9548162303907376
-0.30514511816415874
0.35899731413601177
0.8349822253896114
-0.6152144651226078
-0.851105258279276
-0.4050430718129704
0.7732449928579367
0.43452249700592044
-0.11635760073096683
-1.2497373412265178
0.2524709169103363
0.448761510346685
0.8406553217741309
0.6230741245903324
-0.9053501924315002
0.2373495659961629
-0.6753028446722563
-0.7761552217710371
-0.07557104322969942
0.8040702487142082
-0.14355031270258248
0.4441947081131445
0.5089054914703489
0.5917740812554785
0.2565905138681288
0.5357637941062783
0.1281410750905788
0.13570486209347973
0.7112093817259781
0.1397051163444411
0.40818065415718785
-0.9691494142739581
0.6916704574273622
-0.5936551419148772
0.5847068533755462
0.6687056623497422
0.6515331804931277
-0.4410967533668432
-0.8503284700352078
0.3278626990776118
0.08343677980399758
0.28076832333274915
0.36316221008832966
0.7777315276904612
1.1412801293460615
-1.0115218332312428
0.801861321818398
0.15408476732135498
0.2698336805424715
0.834852639160724
-0.21873831534242963
0.8261108696576369
-0.2861338243999523
0.2084017085871036
0.9901178025493614
0.5860393476612857
-0.5271587104241173
-0.96573080616791
0.670953948869122
-0.2838574231895111
0.10050695857987153
-0.2814873363673801
0.558706315164318
-0.056861445323271906
-0.4437590042707451
-0.11990235337803462
-0.2629448338024142
0.08389504415615631
0.1550729386612587
-0.47443285688786807
-0.7017705128194482
0.21457980020731107
0.32260140596966436
-0.041924229679659676
0.3407802037846366
-0.11126981455367269
0.6493101962844345
-0.40062117155070875
-0.995670973373724
0.14525065498177195
0.2083101313322542
-0.2742392504277782
0.1563558064088556
-0.05564149956843449
0.012640536965430655
0.11338555880450985
-0.8121183648861217
0.11990850287962104
0.8019865734813592
-0.8985222804766728
-0.052679884936402306
0.7213677161644215
-1.2660772317792321
-1.1058969133048597
0.48495705640934866
0.6391403196318706
-1.0700657768561215
0.3135750061675393
0.4437029112262218
0.21323656195447757
0.3020821766175759
0.14426417205331898
-0.016516709554201058
0.23533928029518036
0.236871626432295
0.5481232536479089
-0.29763269983752366
0.7413497388563971
-0.06209573900552076
0.49078763723330876
0.05256816917648298
-0.03770042866045979
-0.48613324785760365
0.7473569998370507
-0.5436372248006965
-0.22962991775990574
-1.009095599572248
-1.0458701096344831
-0.8444940735703345
1.0935420789588426
-0.48810900949593206
0.06910211652959039
-1.3376772681100124
-0.20769898491151334
-0.8040157527816609
-0.07120699922787521
-0.6613370905309717
-0.7861465610452374
0.7968681513987309
0.5252816889471155
0.6558964199102542
-0.9620473967829477
0.4165801616546012
0.8927126005557784
-0.12870916253215076
-0.6217997292208022
0.7117422600979585
-0.71164273779321
0.062233618357940584
0.09660580443026245
-0.44112710944689676
-0.3413699149365539
0.18644322580726685
-0.114196538490661
0.2673942812745627
0.012909658644412346
-0.626908292136633
-0.05352190693615968
1.1628255180265024
0.6655358793407679
-0.1696474655028601
-0.9672800761440338
0.01150923731563151
-1.03357889337621
0.766729790615919
0.5528204322931292
-0.9617392182897312
0.1989798439588241
0.20112554798624535
0.6023100615284674
0.022481468864015933
0.8936717373885366
-0.04301932790059223
-0.9391308034591417
0.04664312629241215
-0.5953265381000181
0.5909451809085248
-0.5920528978340732
0.25003100122251704
-0.6409089249112906
-0.25701728505981936
-1.1557354269422981
0.46780215083618865
-0.6910104479287894
0.7228555161599828
-0.6095514996247963
-0.605091372848817
-0.8782618907792213
0.7500027424476896
-1.0139769083763526
-0.5415834829272155
0.732440197140147
0.5282517318748416
0.4133024263730678
0.6990360407140046
-0.2031474959830021
0.26515199850074206
0.4628794280996929
0.05224886847029777
0.4766882580789301
0.8645047490555265
0.39299470756269284
0.05651452624801921
-0.601812069981586
0.4925956884121526
-0.8586119270729247
-0.3617899610961122
0.28556918784280805
0.26487961341859056
-0.3047248097231901
-0.2102242246531495
-0.8767263422110178
0.5054558908384938
0.6263943607618718
-0.5547198071283473
-0.6152486734350945
-0.7102936775606685
-0.4886949056947898
-0.046852128839854304
-0.8141842027476625
0.7967520799884882
0.9509303217574359
0.42667384030648475
-0.4038602144234273
-0.19886553062818108
0.6586128462501196
0.9018692878642129
0.7149267415181021
-0.4903136986999026
0.21924838531557864
-0.6910339518872999
-0.0801789936319057
0.45025503330613786
-0.9424969477999352
-0.6640282880737819
0.15324472573839662
0.86140349877531
0.11114571958244417
0.3173889019219148
-0.4650033738764076
0.1032283092939337
0.8882183722532138
-0.06247320681091262
0.8520552435958367
0.35208225519509534
0.8778098024412603
0.004060947550894598
0.6968735973781034
-0.2796024227230715
1.042267299875373
-0.39746710840288707
-0.9468770241941464
0.5741738021874987
-0.5915136765530422
-0.32018815874501344
0.4990733018316234
-0.08967065994832261
0.2356455877320068
-0.5308916995859574
-0.3170762835221969
0.3035907491183549
0.9499650457746226
-1.3579173911630222
-0.7572125185039905
0.3473987449557844
0.03588358103610613
0.3404810494200435
0.5398080327706141
0.7148857354018413
-0.2585641533385963
0.45432336586032707
0.08382954403188951
-0.9679324560007113
0.3997944740752596
-0.3181699527733246
1.2746674007934515
-0.1537056906759135
0.00370981865826488
-0.9479716886906393
0.10585242069613858
-0.4491518744837031
0.3553313306235993
0.7336736749328437
-0.45471882903363586
-0.16283226796759054
-0.37981713883500073
-0.7942691718754157
-0.24856972403657623
-0.7434009480883387
0.05579869336771766
0.8567227991525523
0.3979293257144487
0.8552281851107677
0.044138572895640646
-0.5834291521432743
0.7117292142086732
-0.8710329225677085
-0.4170984554196007
-0.8924320519421447
-0.18069593102911982
-0.36489656047782265
0.10108518320030559
-0.9196429921300143
0.3974751044143212
-0.7726911052982987
1.0210853665519428
-0.34938117550392794
-0.9790549694717843
0.6365498815966437
0.4293689234331665
0.9562142845849365
-1.080806803159601
0.7385667267602073
0.7848412100749604
-0.3682380272725961
-0.638683885917008
-0.76293112380418
0.4339532846320504
-0.9984183269869372
-0.7212800115358402
-0.9056439960170136
-0.11746402890704309
-0.3191859337235421
-0.11764105236257752
0.33926719541598294
-0.5969658145432293
-0.5644464709071048
1.0643838890204196
0.9021260164690607
0.6475279437166344
-0.7269251556640314
0.9877921946932452
0.8389550649364916
-0.19278701694980344
-0.9727406372856163
-0.8764513157553632
0.053960080788237184
-0.6886736723555613
0.68954780928467
-1.023965827168643
-0.735839198789046
-0.934800577392967
0.1630905910217667
-0.9239807573054966
-0.7938887821421591
0.7438681169264479
-0.24462954273839646
-0.6332694385985329
0.5454994238687533
-0.9640351004921809
0.2230659994035771
0.26230528634141453
-0.7398955232062915
0.24249872145612408
-0.0127833878534447
-0.023896055409079887
-0.8238063298239143
0.5058048663616671
0.29622598731298705
0.08716745686318189
-0.04239807255526806
-0.982548757865294
0.6104230988988616
0.7465825981024217
-0.8106082702706938
0.3010621147268406
-0.5780237011550967
-0.2960676637251296
0.29745153561837995
0.7349339696910095
-0.5981083172409515
-0.7175064793926766
-0.1488156384316818
-0.7699730069914261
0.8948101879628751
0.7393875328232385
0.36919166651003893
-0.003359349870536421
1.0066484711599584
-0.4510975518450792
-0.4425480158681232
0.08782841503743194
0.987276195590184
-0.5243360589488586
-0.28530542875259696
-0.2508072642191271
-0.8276496705252879
-0.1448736074935842
0.22229541993427057
0.17553076969869738
-0.06684800845930049
-0.08508928614256224
0.6555617699974423
-0.42247502523782143
0.9833659227287369
-0.15174736743694014
-0.36573793616752703
-0.3424825557451612
-0.6996179926510921
-0.4252623914835784
-0.08663735801820205
-0.27543461683607606
0.6797204122401832
-0.6552256435483715
0.8491101994651772
-0.17779397071610026
0.7838377804603165
-1.2207858352066938
-0.6112342868391206
0.4451110856495159
-0.9797373185664424
-0.06593285059068225
-0.6014529411760375
-0.7559514182297615
1.0879129884443135
-0.5426949904160732
0.5430288122553087
-0.23538596772911996
-1.165287885664007
0.2212542839364128
-0.4045871312441577
0.2616310152113426
-0.9090556148264267
0.645954628699615
-0.15589198538533774
0.6355745672887688
-0.9201574540127918
0.47579643751136674
-0.643755969955387
0.9215932660673303
-0.7699816135788721
-0.5199305251475592
-0.7891647271351753
0.5875321039446689
0.17331329866921996
0.5574471497019114
0.4165011720315197
0.35529292053113876
0.7000720588769546
0.14175507267093684
0.32989652094742944
-1.1693713733856386
-0.27535506431606344
0.0935674089066206
-0.2769516806774742
0.33809715582648875
0.2863976084075593
0.32979007072918104
-0.6270630107748634
-0.8850394237529485
0.8630514360805398
0.26588864903238224
0.4997979644890038
-0.5000534151574416
0.8803799903050675
0.8913982329593713
-0.5576340764898323
-0.420237466649415
0.9339938313925513
-0.9185487724267863
0.32129573569075054
-0.007650991120655862
0.6972147679555475
0.7893757096163121
-0.3696711180933893
0.3136597381723248
-0.6038255665986961
0.4929107723516309
-0.35788122044853876
0.5016989470679226
0.07289690794723809
-0.10032511939355584
0.8649367930360442
0.7406088813551822
0.3460072128899453
-0.8322022216203412
-0.37526427475425866
-0.04699527661901717
-0.5555452491409156
-0.841470130229583
-0.46536734741308905
0.2570035957765288
0.5676237682871278
-0.09519849791350209
-0.7501782499965857
-0.310371433052112
0.7334316570544634
0.4065834813373846
0.1831200218157386
-0.7925002169822857
0.754204005945173
-0.5401875834954978
0.9371829661676896
0.252540795079929
-0.38406765834825346
-0.30375312118166725
0.5514535623147703
0.94614271978261
0.6637635028863382
0.0587565939303571
-0.05928856962161934
0.028470648670864386
-0.7084183414887764
1.0378047486924844
0.9014319334616648
0.45877325768757105
0.5907294195764149
-0.8750918031922279
-0.6641452968114345
-0.02431443010083198
-0.8107296146939148
0.4236018465973348
-0.13775180593644262
-0.9251317831014741
-0.11890459118696417
-0.8588670129966993
0.4937137692654541
0.7770803197950399
-0.7387514379015965
0.40196614372391537
-0.7833579833018884
0.8547623095905976
-1.1096090075145526
-0.261007241681076
0.35415827777987186
0.7404556448689471
-0.01144549099434545
0.4284690626943595
-0.3429916214665477
1.111737743027999
0.1458067416655778
-0.9421357876322359
-0.7854670063232081
-0.3544030752450895
-0.9874480557830678
-0.8662627876905529
0.8600269353265256
-0.8205785478534082
0.7154555467848916
-0.2840884886576579
0.9031867025036142
0.07558511121777592
-0.6783227039931814
-0.1874248251417559
-1.2822850834651989
0.7789505199632873
0.18792000984904636
0.5811479405733575
0.17963795855042006
-0.0469340069068976
0.39564488987560237
0.9702574380136906
0.9641445516387596
-1.2022647009813061
-0.8827690416148454
-0.562680689149549
0.836380119482805
0.9448557292158443
-0.6208540631344548
-0.619698811741951
0.2408373509649303
0.3180762191630352
0.24169750886540206
0.3918399134537459
-0.2684014687436892
-0.038249359901672476
0.39753145748931856
-0.29310571280279196
-0.792311102312744
0.3617980506968625
0.276677756150456
-0.6090906247417429
-0.5428341556996108
-0.05946583911792415
0.3960192831190497
0.055196057089238255
0.4443030507857045
0.07539107940118715
0.5727732795961643
-1.0171977559116951
0.42816000350677635
-0.26895069092846574
0.45391563612984087
-0.6477239705388449
0.8457488154419414
0.804246608830058
0.014173142415531869
-0.9394012201495937
-0.4334956753039281
-0.3648586912420455
0.41805657719357886
0.019666797861958286
-0.6399160576862506
0.9160741947346122
0.6550118648846635
0.9066928946852633
-0.7756052276869905
-0.6495859100152955
-0.5855416451823516
0.20433649045604904
-1.0450653159858883
-0.0837563980903669
0.984075017454765
0.5198379332881066
0.32641031930995323
0.31565943941166724
0.3580428171108437
1.1338707728643345
0.14659687834523408
-0.14153209047164383
-0.6034576379146821
-0.15466779164821123
0.2078084212397725
0.14428306707523686
-0.6345407307179172
-0.03829402152294862
-0.511573299006112
-0.051953893469053755
0.4181821311472771
0.7748560928567921
-0.9381012683260871
0.2793436369101245
-0.24999694508872108
0.5450383242836913
0.11255878773564014
-0.9729840556277701
0.819916912664173
-0.6931504557025063
0.33154775120173957
0.07193419862324973
0.349210899652974
-0.08240731513897943
0.2844729142972134
0.9445367079958787
-0.6815551855965293
-0.11170926211808056
-0.7667549533471032
0.19740342137708722
0.8149382964204126
-0.46539556754834077
0.21363073932430654
-0.8770923004296229
0.5563601262017234
0.6755912685501217
-0.8044471789572261
0.5760162584876631
0.8041193934117028
-0.960505888466307
-0.2844147886027521
-1.7156004461620822
0.2921725757014702
0.6038183634729829
0.7382129367546509
0.5790888487612029
-0.06728816173047614
-0.36817477606817356
-0.48203087719764104
-1.088960265087192
0.12107102430357537
-1.0289351187185445
0.2948139007736844
-0.46585449882505
0.11416633610721898
-0.7005064293333892
0.24466385987952752
0.91184762814117
0.1099460198982282
0.44678697102891757
-0.08270934974745138
-0.025674419355995067
-0.047186603065471275
0.19150276044824152
-0.3639420954726576
0.4273629957223502
-0.981335969549095
-2.1129384055658775
-0.323863494022533
-0.6482424414537987
-0.813868527810099
-0.022258009778656444
-0.7747412782924481
0.806478805733549
-0.14696416542858515
0.35265864345562126
0.9358890804435138
-0.5080610387611063
-0.5873311739333805
0.027522602238342977
0.5486841571469437
0.013730607881451487
-0.6197068609496226
0.6405385158881629
0.9590213658752823
-0.4389452300013819
0.23246064196198088
0.6943108211041769
-0.3395465111443925
-0.45307606981668075
-1.0223528171865863
0.05121007946566106
-0.6915529410595429
-0.253487999907941
-0.6363635958414854
0.9178086558721565
-0.48448454119431594
0.7500779612655123
0.7814600129374195
0.5025697496753718
0.343336025261151
-0.6253437299603557
0.9318852931247119
0.4491222254935089
0.2946664874483807
0.09351793766298148
-0.5019118580750734
-0.9212545711177622
0.6315366529709949
-0.09400868783843047
-0.7559634711208578
1.0389408490529806
-0.3864780811451655
0.4212184174703907
-0.5354357926793757
-0.38484936451256746
-0.8318607473197578
-0.126634692929838
-0.3686634841500316
1.4025552986068017
0.07068758615979297
1.2267215598228978
-0.9457315044871242
0.056827057132736274
0.5446144666973534
-0.9609439878246043
0.583098277808136
-0.00014582140310247487
0.2676308400891321
0.31002102133830345
-0.3757498850215113
0.8807289589606541
-0.42844731733904756
-0.736749566980459
0.5467766255115776
0.6986628417618997
-0.024170253454649487
0.6608923666308325
0.6006715162753723
0.6842164613418925
-0.2847801923295514
0.14850285071348165
-0.30591499031827446
-0.1071555505105309
-0.9778396966135618
1.0233035976244602
-0.49374051973911065
1.2871677425783867
0.8451903451516848
-0.6393562980274622
-0.6590849277539583
-0.9712398477844044
0.3523264368794601
-1.2709709323315022
0.35462906001998096
-0.8866499938593376
-0.47315381660835154
-0.48442260902661705
0.9937684684230842
0.1810323280483488
-0.3036348742531619
-0.6271096915373156
0.3667664130347794
0.32898623158303336
0.09548417644262647
0.11462815465878566
0.8557140343198105
0.8566811767464793
-0.9410058372187413
-0.25156862468353763
-0.29477847889536735
-0.661028774559274
-0.8304020920027744
-0.7414970333518038
0.8139174635486317
-0.5111434174955549
0.14828307936594387
0.6051640083953577
-0.12006516243321812
-1.2023439095921842
-0.38433427698709094
0.40376746334940244
0.120064431758098
-0.835626814036629
0.1265303060455262
0.7835788184982085
-0.764410269969067
-0.30754507939987064
-0.4777708993094193
0.058718459383463845
-0.3313802326398575
-0.7286874571598381
-0.10053457427539454
-0.736889900934459
-0.1656117868031769
-0.5718189131492868
-0.8759409624443922
0.8013264754548808
0.6475088400862447
0.15910849110058897
-1.7186453851977603
0.4506261113839714
0.9647322167086285
-0.39256329597598644
-1.0771695151199165
-0.972448570253041
0.20511578429325028
-0.8585346547538731
-0.6937846010214769
-0.7132582586725293
-0.8312069186772072
-0.6248877575497257
0.700623634678467
0.20866871860816688
-0.8746099239312516
-0.2101896502618374
-0.46773060357564594
0.10002218877194101
-0.4763405471680749
0.15288901989126072
0.8382998387212188
0.9125564757139037
-0.7294878856831116
1.7910480819292265
0.8395395584203911
-0.7391383860326901
-0.4882160378714303
-0.07760873919113138
0.520588008461644
0.4899618295275074
-0.9423279921976455
-0.6081414933710765
-0.19799947905294732
0.8395683419924235
0.7109948402948307
0.7060125068617451
0.20946489805396085
-0.42233333046553306
0.48242675283063924
0.4041174394891401
0.7572753914539044
0.5124533863715465
-0.985042489314391
0.2642385222494843
-0.5716331506839912
0.4747360619176681
0.20969570669358095
0.006404159670437285
-0.2599416541066786
0.8768749433388758
-0.48009081536564924
-0.3165988650635483
1.1246303858529185
-0.3351788358428316
-0.04564965116409295
0.9537726134421399
0.282749524203633
0.14507446554664968
-1.0170725750171878
0.33941103214850427
0.9233415884015144
-0.9315651064762748
-0.05329422305969225
0.35581140194401845
0.48878776417766684
-0.3561752502879465
-0.48833004770275784
-1.25566890855013
0.8719197409754498
0.0018833180212138047
-0.5683414900990681
-0.12403722803361006
0.20646512631836683
0.7718639122330853
-0.7451919679056194
-0.7737985876705034
0.42428009549012313
-0.4080705108345339
1.4313605672833518
-0.3360941940444355
0.1585429814097258
-0.15840029694118654
0.9780658559737684
-0.7129283602560454
-0.8117386956717003
-0.5583203440663004
0.5416204939454012
-0.03568373510600983
-0.17038887440534606
-0.9153816589907156
0.15941155856605765
-0.5245464925754872
0.6771622455517863
-0.2977229065595147
-0.23678829923577457
1.0849056567992277
0.3500695282656628
-0.07408098242416922
-0.011873336283538411
-0.17491146686758913
0.26576746093667264
0.5271493220419026
-0.7347435735737798
-0.25022711793723834
0.6275902479963513
0.7217171536111813
0.9030806308526547
0.8581103955663487
0.5100416041430514
-0.11166787896833837
0.599863649946018
0.34740019093084784
0.7498031703888085
-0.7437990205191158
-0.3223307092741127
-0.27323487002987107
0.4391600016645995
0.7751430886509209
-0.44267838172452956
0.6074426771806493
-0.30708661333627735
-0.6791338199566088
0.2839444304257048
-0.6949716265512049
-0.9070094465857796
0.0609788280625077
0.16599941055597878
-1.6412111557814686
0.4713099043316668
0.8337078496411174
0.5928851305731373
0.9543816997420426
-0.7106954291768147
-0.3607658186849947
-0.9693693179167552
0.8157173996316371
0.6012097191339058
-0.9631902223051979
0.3825188820078943
0.26003337826459366
0.8571805772138036
0.7725462638476664
-0.9505784495496193
1.2052938339917372
-1.0244989142703433
0.47672977543510525
-0.2469270362040345
-0.5760612612828566
-0.33296294939848015
0.08609343980388301
-0.24041660821094213
-0.24585435068411188
0.7925933248734003
-1.9077888833092858
0.17487332665603647
0.4739368347748321
-0.209951185891385
0.42884080587220086
0.25527253230231667
0.2333788345773819
0.06913517813535323
1.3879404082525695
0.9408970146048491
0.416410135034904
-0.43218218369203054
-0.03386157272248771
-0.22041606291928853
-0.8134860534961526
-0.4561567513828081
-0.10399505194316158
-0.8262709432166115
-0.2631219935333629
-0.6785024355969387
-0.07045605786772648
-0.8638882477602055
0.29956435272135323
0.32850580207379215
0.5978632457762572
-0.16290431453605955
0.056929244387172
-0.5244092077434873
-0.6068865294722096
0.4890758982220599
-0.5274860974220027
-0.5727053694974112
0.37594535041596483
0.3335923000503766
0.45873333952565915
-0.5822601142288109
-0.9929484664158537
0.44814907633121154
0.26480173568106785
-0.5371192828518621
0.015824601082205014
0.8000671763547477
1.3082217266274172
0.39528990394536323
-0.40649547162730976
-0.13085493416413327
-0.4954673816863318
-0.6375155310102248
0.9312433307306272
0.07079509798242846
-0.15501983127108496
-0.11237590334072516
-1.1182812666881827
0.8302607021689656
0.3539589817105959
-0.26955356596733987
0.055480024160498305
1.017041663382719
0.7005395095044379
-0.5435272357442206
0.29279652929541294
-0.8174042725963739
-0.9807433506363636
0.6379176328322254
-0.274672145842026
-0.9300473254246034
0.14722024841803735
-0.35390080950630354
-0.39473557102687196
0.7048403792616758
-1.43397543852472
-0.9325329743747485
-0.2120553257954105
-0.008711328492082688
0.048429387319883804
-0.5802827090773623
-0.24338747961493792
-0.10939368850961885
-0.20771755863801664
-0.5829102367599465
-0.4335043155535905
-0.5014587434381607
0.054560860901643804
-0.6692685138242478
-0.6639751409603222
-0.4283382764684921
0.4002467467399976
0.6321034261018695
1.0356893589125655
-0.9717409467161733
-0.6983547216431776
0.7919987736574303
-0.5296051838595517
-0.12571850101083207
0.9448030511540022
-0.08873267436576043
-0.24512930660880983
-0.7127116466575647
0.4411603397451063
-0.5591362349008838
-0.740862218797919
0.40605990400581154
0.4248492670434384
0.5691343319854664
-1.2069416918183893
0.7738633275867913
-0.6159589367144782
-0.24586084330383706
-0.7821854814992815
-0.2810605528083818
-0.17983106111319205
-0.45905615251509374
-1.0992164991502231
0.0760761269281579
0.40743265990450317
-0.7917439114622044
0.6255930190381709
0.4038084411292579
-0.9019212510841351
-1.0046416855537805
-0.5816790366530579
0.5062871688627512
-0.6961424652913569
0.019309158454534913
-0.9740359722982718
-0.9543644804777884
0.4236770840848064
0.5502665776452649
-0.5232678594007686
0.5089949679159801
0.062350881944931755
0.07060646449517323
0.7185996619449594
-1.5392660076886857
-0.2113568101438238
-0.4028014344741063
-0.8140948207390257
-0.4608518728655643
0.6194757389648096
-0.6670702527972192
-0.2556282916949503
0.6014718521296994
0.7022737722817717
-0.1949941824569983
-0.1422978408268745
0.7367715041366497
0.3741479506751959
-0.22118612801149498
-1.7320281697354771
-0.6828593506078994
-0.32141586327292104
0.09830477080793174
0.6800990915864519
0.3535354182187682
0.24840494196782006
1.093306843442185
-0.27015040302088145
-1.0457653344397098
0.07279625723340115
-0.39677814781477816
-1.0612618391801771
-0.8038979039190586
-0.1415886659163676
-1.3064701886360062
-0.009821927855479234
0.028047554353335287
0.05958548646820838
-0.6003952492376753
0.23066070961843935
-0.9159144069056917
0.5711657059092405
-0.5347409365466526
0.7259638518681453
-0.08363531975983166
-0.23128494956261805
-0.6307525657910241
-0.518751175690374
0.5928021968671915
0.17508507511247476
-0.03707515296543123
-0.5716185682110597
-0.06672428325986234
1.340014838086512
-0.7727918629290692
-0.2628712436034467
-0.07699699683537588
0.5774697294601031
0.3145683750250493
-0.31240399686933734
0.36292523117363495
-0.43896843695933585
0.2024158294124769
-0.7788943741053456
0.3025580458731185
0.2582705658566673
-0.8876465026706462
-0.6149715125128449
-0.36079973157428574
0.17597106017969497
-0.07806089641445854
-0.9025541395283092
0.21488119786357926
0.061346543747675966
0.7464505933132479
0.5015896302644619
-0.053926696851649795
0.09919215172180013
0.8681723017245077
0.06577015950273347
-1.0433047399199347
0.252928107797779
-1.6677874110848636
0.4519429479219742
0.08757631885050488
-0.5985610382552657
-0.7441834799275497
0.0716192588690951
-0.3597089552455382
0.06961424431471293
-0.31758621791415353
-0.2093449558559574
-0.031029682180308285
-0.8745856768068948
-1.097179933426573
-0.3013505719155063
-0.9153894310071494
-0.4778120509085184
-0.007681250125042948
-0.18497672253979486
0.40877074296566335
0.14242771319664368
-1.0466064173105252
-0.9183981604008186
-0.24299079018903855
0.5017840344765749
0.6901091507681569
0.5762307094362068
-0.2522921353208892
0.1178047263005215
0.8421674613996124
-0.49225310234018893
-1.2336188639563022
1.4658849306620247
-0.2823755654304583
0.7957117662406961
0.7538896261309346
0.2668639128196282
-0.3831210338931305
0.16289066928960022
-0.7769324753198769
-0.8825697225426822
-0.23244875387717542
-0.37875414005616154
0.39483473406905784
0.9745606288655735
0.01065430957610511
-0.29570700166815006
0.3164947127291841
-0.7408867075319092
0.35804563528784095
1.5442712997130166
0.41002337397371524
-0.05733962767410263
0.020451905937164762
0.6129870962291117
0.6511283186180397
0.5238569738443134
-0.013986129012471236
0.0009446965927206407
-0.24140609675631958
0.28652476364566426
0.26310929461465243
0.7998519691432052
-0.04116169536271724
-0.7010747538204417
-0.2396996799638851
-0.21677350599097803
-0.36138290733391015
0.40827446613443863
-0.36095220144829343
-0.4575790183976636
0.49204302311238396
0.04580452448819509
0.13812649986927172
0.9011739387870638
0.616569952055777
-0.6662583272685628
-0.7102904587865059
0.617717736079779
1.029006377262922
-0.4742963974807491
-0.761269323135771
0.1736000106212058
0.4964136858523358
0.8466930053659961
0.6016513578673494
-0.49263501665861503
0.5320289014139882
0.004003184673453303
0.8276380075800599
0.07246205381623762
1.0699739341036312
-0.9606747151999833
-0.4526522921661444
0.38870373350560833
0.8357328966230879
-0.6401666704139939
-0.8637540447912562
-0.5456558515755475
-0.07218140672855765
0.48780669491073353
0.7679541438388396
0.9617094132581148
-0.7382986453847693
0.9429440029108895
0.25346890681076956
-0.2945513977503634
0.6955328218230988
-0.40737501605826537
0.5264259684456778
-0.5889169829796154
0.2403620433414906
-0.26228425412670614
-0.24756071642271477
-0.4028145261505819
0.683051586380831
1.03738788942149
-0.7524607078492698
0.2493433739598956
-0.6564796681034676
0.7823975085661049
-0.06914048281244002
-0.25716192183953296
-0.1535027993282467
-0.5287101942690412
0.7513931927991333
-0.34862307711453505
-0.16475258807939439
0.8889307637002267
0.645659471618323
-0.18024090807695548
0.40273797962583
-0.9550353501133552
0.9615292888009345
-0.6028015414776818
-1.018393264156004
0.17176069767558352
0.03764898588253872
-0.5669732274106751
0.053513962456370336
-0.3728485772057301
-0.11329039763164969
0.6487382087771241
-0.5448815474756525
-0.13550674992938597
0.6831779505143988
0.06445368925461017
-0.2763772389330361
-0.04902792141250409
0.4218045434661852
-0.21821268372683886
0.5070327375952673
-0.3123107302668551
0.2199091852639246
-0.7032390657508142
0.6601376711481244
0.8813208346369542
-1.2205819497021062
-0.19933137715342084
-0.8497238782733112
0.4876778768752652
1.087353927096073
0.3943996607178047
-0.0688618883763134
0.24449070909737294
0.11331950589498692
0.5580876932656159
-0.24172109059368233
0.5492156117366448
-0.7825676657044035
0.6160067585416027
-0.0056057146918240385
0.518951661510783
0.6652093773741788
-0.38254756797954276
-0.8918165847579417
0.9320812852483573
-0.8059068676799409
-0.34518592309515217
-0.27000655015748304
-0.16159565480143845
0.2849819382975338
-0.6304255544571794
-0.2863646378464328
-0.6459481335916476
0.8336523757722858
-0.5665694214279249
0.4432043087977697
1.0165895591871155
-0.5874036897779371
0.4997942366077732
0.5013947966816592
0.6422151229798366
0.3613471638500163
-0.11025677533243354
-0.28707722930487384
0.16244655958438398
-0.38478251022499776
-0.1931529154621452
0.008325096903432262
-0.1425389859929594
0.7479063607687565
-0.2756306829531969
-0.3108125713607427
0.6353027560157651
-0.9508515159677579
-0.8429746461334571
0.8069389292161243
-0.8132419093139158
-0.0017591709572807757
0.3659161081131375
-0.8955320758832511
0.6913706438042146
0.03413421700028844
-0.8632021595249922
1.1408391541235265
0.02610346817063997
0.003894663116714165
0.9267292171162077
0.5071450381399257
-0.1754940767996937
0.31255627165681177
-1.0925412853915968
-0.7677386419473075
0.8271168042409289
-0.42439895309239895
-0.570826154831609
-1.0058044758833706
0.010919257057541777
0.07720813032221888
0.03271018236899581
-0.38622991690687863
0.49713535720723534
-1.0964120405268558
0.05383681391442848
-0.32989718726229605
-0.3472948966390895
0.1309567221856207
0.14983426152733154
0.5215043389576429
-0.03672076339939743
0.8525660017649941
-0.32998869395896674
0.5637879994988256
-0.759145591669773
-0.047107924328270254
-0.9749106574261612
0.10825080168189002
-0.7444686431683368
-0.10495203653669805
1.3742397578386656
-0.8725792536831424
-0.7619148312632015
-0.15377958165989755
-0.31688554076996134
0.172334141387005
0.9467503904002618
0.9836930307350751
1.3442122261718128
0.5613525934510537
1.116210518358466
-1.022073303527043
0.7694802531998279
0.25116730304578877
0.5241535024647467
0.37304902544976065
0.2922661746298187
-0.45980034351569543
0.6255016798892414
-0.09725547616687734
0.038060077572502286
0.3864291692444702
0.7569052790516606
-0.3647244904399914
0.2641503938694674
-0.38425207390887156
-0.18258489986780155
-0.868655540718492
-0.8538877100343376
-0.130956072638155
-0.2774034980264593
-0.5896233162657446
-0.3626445768967563
-0.5699048351779801
0.8126682060725862
-0.17463986093334213
0.8393279688727352
-1.2605621164454708
0.6899278662912823
0.508981212076512
0.3135454529390375
0.7095621703070165
0.16938984975126475
0.7597502735586553
0.037468632032566035
0.390589453427721
-0.5025134346664035
-0.3632471172827199
-0.3878929621921792
-0.464063194616623
0.025393836394219556
0.9208422359839922
0.2896086674366794
-0.1332982011774366
0.5741847506872315
-1.0763832682808265
0.14964361905001694
0.3689904388594642
0.08525815886363795
-0.4354442029657594
0.3893915846694379
-0.640151002061909
0.5510955848078111
-0.03115973062267722
0.3176924447437325
-0.4333415744993456
0.37012432463730477
-0.8665481823512023
-0.7077375756968304
-0.18988859985088496
0.22893910738338666
-0.3217114655951899
0.9233182200164427
-0.8155096911968661
-0.6919797423083593
-0.02475590691509259
0.16782687101873647
0.8431976341253453
0.7033333632544553
0.22700501642068782
0.7050845091416772
-0.7821761453922476
-0.7700890385141859
-0.8557869165510448
0.05098224587202029
0.09561227491652463
0.10768031271007836
0.13326716781427675
1.0436906730449809
0.15310132641561583
0.9143612212813557
0.25317186274579234
0.5071245162794004
-1.1585843979303165
-0.1375312716943383
0.028490558838187203
0.3642575744015155
-0.14348569432506375
-0.012837376489928318
0.08549349862722797
-0.3121831827262911
0.643004242014501
-0.3324297640460921
0.1807455656668498
-0.05335489466113929
-0.8450856761781607
0.0025272972847385088
-0.8739400298449606
0.398874581733828
0.04999325649880253
-0.6470284818374368
-1.1502500580509447
-1.6982359295794853
-0.0033059263973566713
0.16377785334509048
-0.45962302824851214
0.6204176204057235
0.1743401268315264
0.5087980899516024
0.15565466361970226
-0.11964618846385214
-1.0961399756310473
-0.2427892652935793
-0.5461262433678711
-0.08761216174183177
-0.6818612801151863
0.9269724123984733
0.6388605872861306
-1.0224108518332127
0.3494143098731529
0.06232177280886761
0.09457457607509315
-0.5591099285399741
-0.7232734959555773
-0.8630602751968628
-0.9618106723938723
-0.33984532829531827
-0.3920920027135346
-0.8568583557530598
-0.07683066660985656
0.0939527089927433
0.6175788413201784
0.5323012015822294
-0.8935043758438367
-0.8013512619604968
-1.2779116625001372
-2.1263162103946542
-1.1723003429053067
-0.6909978146064241
-0.6361921819273954
-0.42534280151609927
-0.18300856657998912
0.13791905613375335
-1.0986845007115653
0.016767369088448624
0.3967230899311768
-1.2851709321739901
-0.4511149576909656
1.015875829535684
-0.471352752701073
0.22154634711922705
-1.054730165829284
-0.6993813600333424
-0.8638739201844781
-1.378020929376067
-0.8733401475325109
0.24762570616862814
1.3194678271711844
0.0382032423950912
0.6843263209294078
-0.11518579425181436
0.5748686982223777
-0.8943223096614752
-1.1787934372498479
-0.4214597590689938
0.2666782953621953
0.012553611462987708
0.5944868766647983
-0.3611489646763384
0.6103686117032731
-0.16718390231313332
0.2881576965189963
-0.41875431289795
1.094965267432739
0.3734490064197225
0.28278031540482507
-0.5972054390089088
0.3468108254978873
0.26211762395337374
0.1915024114555432
-1.2067111735638665
-0.10114718398269888
0.39389964504180486
0.9572407112242466
-0.09862687357009452
0.25107110224002893
0.24548799123591186
-0.10487162043093795
-0.6401880494110108
-1.0050465783886602
0.5803834123552378
-0.3096289099562122
-1.0278615941715314
-0.4308660594773833
0.07144293556374577
-0.06165114518468035
-0.07137836479697048
-0.12292305592737039
-0.6223205912689066
-0.6198064305879015
0.7300375728288598
0.4169129261065813
-1.0217673618296772
0.45255946135658937
-0.9168190538392474
0.25754253262540244
-1.4124595090711947
0.890157439870031
-0.3132386177678487
-0.7188398848277953
0.08719104893352199
-0.5880463673751309
-0.4422141500709681
0.8611226905064779
-0.610048949987963
0.4823752675693819
-1.2477445122548423
-0.9197523029469993
0.5075080932251215
-0.2859174725539001
0.46417212045920353
-1.3368275027811467
0.01607045548116006
-0.40247337202041306
0.9712192675246678
0.14707429817473655
-0.7166699478868555
0.541517583011155
0.6669102505907845
0.023884687633351456
-0.7033493404388215
-0.16342629665560104
-1.0182845465523302
0.709248507006026
-0.17405846124559574
-0.30490124641473043
-0.5931566773058321
-0.11233901045273001
0.06772337004424693
0.5220756888189207
-0.38560077165239837
0.5910061689332764
1.402083202487931
0.8604725682017542
-0.01229168081401479
0.8761294679828311
-0.156609276005788
-0.4546997204679903
0.25078675704358744
0.13205263488989025
-0.44705170931317456
-0.21885258233139376
-1.2103548024355968
0.8982423288207347
0.35581958769317595
-0.3869418239748783
0.10783675911512189
0.4333930277189788
-2.8592470135422285
1.078072363272761
-0.8351172773430217
-0.7058010831029804
0.27336730909124424
-0.5411360198104763
-1.1966823584407638
-1.0980194201182507
-0.890518880948315
-0.7363357273037527
0.951732235451471
0.600783541358496
0.4400158514862575
0.58098733875332
0.47061802957410703
-0.2970342876741621
-0.08312353046800326
0.2880148794725403
0.26937980426310465
-0.7917314162065563
-0.12694284200443529
0.25944539740171113
0.4224518439362977
-0.43013220743190245
-0.6719693803557387
-0.6433399005185991
-1.6392283152384444
1.2179511820668492
0.14990946097005958
0.4919288009591274
0.11657080108540974
-7.491351990442666e-05
0.22868499184216678
-0.7556907116255754
-0.7084813322770077
-0.28056974892765496
0.27977574847778414
0.7679063306452903
-0.25327695779786297
-0.9177102016957703
-0.8578073354161813
-0.5599497026528344
-0.4099033787644816
-0.9907718611909501
0.3197863679199712
-0.8723597950218861
-0.8529873743946482
-0.34123096905899275
-0.8250704241163505
0.09176612195809776
0.12562928998105066
0.35122511169951043
-1.7633805899639554
0.26481886207160293
-1.379053954852248
-0.5394501621112723
0.320866781397159
0.30748445521451284
0.4601648887694027
-0.18703537502646764
0.06108206662925704
-0.31662311420580347
0.46625858237878454
-0.3816400575495954
0.5728031842744514
0.7982478992483415
-0.7075976939566003
-1.0869854065196105
0.4076969723477472
-0.48531678774416576
0.275599664429464
-0.800118853192681
-0.18109093172000665
0.6533426923909404
-1.004971637070118
-0.2453693192156173
-0.8095976741524202
0.10099384280993193
-1.8768203309642617
0.00943535421384999
0.20936109129688193
-1.299104477795425
0.01588280719462935
0.8814429996258969
-0.37100303109251564
-0.926004644983048
0.5584899104399383
0.041754884015452784
-0.24653130706354204
0.10711529308959364
0.12883060172068184
-0.38907864990200014
-0.6330328925618942
-1.0925083875307926
1.2613110998874109
0.2036956025377037
-0.28123539209549436
-0.3154450863918897
-0.8841430170297718
0.3372700376574928
0.20417571111998642
0.10036261524678688
-0.93738789610457
0.9781411083139093
-0.14734715355631536
-0.07981679707743781
0.23933196202387083
-0.5381595811389698
-0.028864815239058036
0.3238553820520461
0.22990860418137243
-0.7106841081900975
0.3126054405831366
-0.16580411720497984
0.43698783459458707
0.5987607299560918
0.4204963735845559
0.4935258019339093
0.31306811915383853
-0.7020261804640535
1.5332299460607661
-0.6757977169329519
0.3726624416386382
-1.0880714038220927
0.07618272293074643
-0.2920299073046351
0.6057098877841778
-0.09325885059592488
0.6724239053345017
0.8095582004257886
-0.06853724854681566
0.5458189131875141
0.04827034960493845
-0.69255094860135
0.005434586541741102
0.5622621383867015
-0.7083933079121099
0.14150258628408235
0.6551415721426171
-0.29663184231213974
-0.6686446369800093
-1.0849462023819927
-1.0797719389722253
0.01892184972893556
-0.35554581794751
0.2637132755973852
0.6823378996328748
-0.11681441061571415
-1.2739608375263256
0.6551028969255795
-0.2640393698022172
0.5973862388360162
0.387089971815083
0.5982293765017906
0.3688671402985538
0.7698427704744609
-0.7820897137130111
-0.1349922344604496
0.4267441315871349
-0.8590159583175153
-1.3951420486682735
-0.5157889063707831
-0.756689859427388
-0.579479580633316
-0.08913046755246702
-1.4795274616897254
-0.4624129156804044
-0.2597574955057949
-0.7978111658444415
0.6041600644367031
0.7006968242223658
0.412768066321423
0.781036004955537
-0.5309837957041142
-0.21362396902939726
-0.288918604018019
0.43743074528913767
0.821665238915368
-0.055236186148008556
-0.3336273541004082
0.22698868723146956
0.813831122939883
-1.6653051493894313
-0.09600747140117637
-0.9728926073881778
-0.9158481631883082
-0.19375682178276527
-0.06377006802880072
-0.7899804936046334
-1.5332692065823597
-0.017289240005811928
-1.2594576551557888
