-0.005532231438366944
-0.0019556795351139684
0.12630377995755293
10.328994849026575
-0.003725350090447856
0.9232143181634764
3.731490881324232
1.942296358776042
-0.8247527552992436
0.7913480421803805
0.08445179821238843
1.3485206980748303
2.1112962020326025
-1.086798229454093
0.44944624695642676
-0.30243189025549294
3.379228114657151
2.1482432134468823
-0.7165405727087709
0.1382973011107431
-0.005571333771634506
-0.005126564778644915
-0.008093000945796654
-0.0037728955246893784
6.178286731282968
-0.001211802621634245
-9.789532230179796
4.796711015325771
0.00036405409552630046
0.0015010559309726647
-0.003769017677653634
-0.0014413506079001017
-0.010530441035293612
6.142959044628703
-0.0016450893705679459
-6.380663129254633
0.0011664232741022107
-0.0021610618059791577
-0.0023403872528992282
0.4245088362171902
-0.008154629350272469
-0.002854135316549606
15.244866167823098
0.026919626399043703
-0.0030126036746159577
-0.003294811394225015
-0.0003588187364579593
-0.004496795579048943
-0.004549643527095788
6.315976939642751
-0.0013235012609277856
-0.0035005858823285363
6.27309888509967
-0.0016694162218219254
-0.003208939828864204
8.331137332526199
-0.002022471947504385
-0.00027375082033437987
-0.005661089599659829
-0.005478605650742347
0.004474546324179833
-0.02378013770738848
-0.02341960425554253
0.007751177092406621
-6.188959831464206
-0.5350656897921562
-0.21611384821869203
0.43030890726536825
2.2544988223653255
1.2890923698803418
-0.24364054246096392
8.368553679637685
3.083232045810848
0.02301040797516119
-0.5641813807533074
6.407806819048045
0.000000000
-0.0011164238011930237
-0.001230197147509846
-0.001279795818488502
-0.028260454200377746
9.782509028432765
-0.0005666532647536676
0.015180688207842928
-0.001056983230214838
-0.009732131441102165
9.076146021329244
-0.004306945024687156
-0.0010330565979966714
-0.00284513495482935
-0.02959816303969115
11.351027640740867
-0.017750238390737617
-0.004510500335458802
-0.007107548942201381
-0.04172422026962479
-0.0014244263109947821
-0.005362228663581101
8.32321476139719
-0.000682469742453172
-0.0097103935317147
-9.784466467270033
5.851265902285635
-0.005986597080307461
0.0013887857426191747
-0.004656258099164958
-0.0038983588303729737
-0.008721553254364519
-0.003156342886849263
7.4378802349507875
-0.003985373704916719
-0.0011298427631403134
6.6859642941367055
-0.0034002396176481924
-0.00532755043847723
-0.003381320256395875
-0.0011731700335137778
-0.0020700393207694003
-0.0010952460832142524
8.758913451945928
6.634827465377205
-0.002161733904408657
-0.000955702522350688
0.0005102077712760612
-0.010914863729089522
6.308041678999824
-0.0011142449266948913
-0.00023702623383201342
-0.004948892999832477
-0.004167117394983753
